[-0.06227437752827205, -0.4759309642674173, -0.24720200370274473, -0.17742150416882116, -0.028139850903742852, -1.2244899974299155, -0.17021112288735407, -0.09438365386279662, 0.07442442630664386, 0.05796015236686889, -0.019968131690766014, -0.43916665484302475, -0.9208316337776472, -0.23197546052606352, -0.6936287449100281, -0.5137920167828254, 0.09803295162328056, -0.5140991233726362, 0.13490815677629783, 0.06245377973227896, -1.0192461148077265, -0.01617789565276678, -0.37014632672692155, -0.019178684222205304, -1.3368078879372614, -0.16607498128957132, 0.02415711866689934, -0.2203452896900555, -0.23878966938428844, -1.7466505528005942, -0.24623869454034236, -0.2843491013522057, -0.7660055161457748, -0.4437458604305495, -0.7834034194465745, -0.007055784327433272, -1.4978141007153836, -0.4284687398777396, -0.538508102275149, 0.036402569425161596, -0.15444665318321496, -0.02032093542012879, -0.016743394998852305, -0.17672680855691225, -0.6915630538246683, -0.31609451576662007, -0.4869551176832428, -0.13888558829023448, 0.03732633510931628, 0.062031929240641784, -0.1763654429169842, -0.21399284809040958, -0.3875272865284694, -0.012551287462647387, -1.2825974223722054, 0.010650885228676143, -0.8380681835884147, -0.02270881235142523, 0.06318392811089726, -2.0753124384895414, -0.2894566765620968, -0.22134318335772485, -0.4632424997597009, -0.2260972648632044, -0.414744944211665, -0.46956287237190025, -0.37235406473841876, -0.16197140696881257, -0.024082773553716443, -0.2819855212350939, -0.3395444672787515, -0.6622419060789304, 0.040282913820282984, -0.17366508480346526, -0.22744744280390441, -0.629733561530238, -0.5460778355738433, -0.2580298146799211, -0.31338714698239467, 0.02664014556841062, 0.024234732761037155, -0.3051049564541753, 0.01264298159884255, -0.17876620642008334, -1.679524215827721, -0.293001153613135, -0.0025200569554857466, -1.3160696078523362, 0.0930926944951588, -0.32395471098804907, -0.004688840900672446, 0.01284495053924153, -0.3029260497443998, -1.2826493731203186, 0.011675579966684073, -0.010740163646016933, 0.030345690211341616, -0.014057924567332339, -0.3979992069593457, -0.3631005532511359, -0.18704366070098769, -2.0834544212681343, -0.35179254428033224, 0.021625574328211383, -1.3735108081256717, -0.006593621129113026, 0.031271364846585166, 0.01738852928231293, 0.009871522232529005, 0.03577890893435773, -0.8660845376449053, -0.31220762608680913, -0.23429187997723996, -0.9333269658847607, -0.410950063391037, 0.03876665633803136, -0.356398084052903, -0.12630700202998865, -0.3652022249284023, -0.22991532732024797, -0.20354353992026095, -0.6213545704162039, -0.3714384814927822, -1.0456191187694868, -0.5451772740458444, 0.03562530619452681, -0.21027338762317674, -0.3594749229563463, -0.4635597233340386, -0.03717718966799724, -0.6833517094019371, -0.6348516026740754, -0.015387413826388044, -0.4759501857586312, -5.323335997453168, -0.346226855268778, -0.870125439242077, -0.43432189019991174, -0.61653057325591, -0.015781209035761558, -0.56392034618697, 0.04724491189711903, -0.3435728629446614, -0.7808806085017528, -0.2966063611123409, -0.41352799885089814, -0.47181884120916184, -1.7160400929898731, -2.0605553581911167, -0.1257930076305971, -0.30914215925161814, -0.711499277902532, -1.551251436591675, -0.5220453707717385, -0.8292481203736023, -0.7205224666005879, -0.20257661397108614, -0.6605612448787027, -0.35041318413190875, 0.06650181426562346, 0.027515613773831375, -0.0363883654682281, -1.3760696683654143, -0.009215326055074469, -1.1498692882041994, -0.3462313606577516, -0.3682499396636113, 0.007652724576148892, -0.17163489425725542, -0.7058824960424606, -0.5736649246456016, -1.2404716372929296, -0.09830988182129259, -0.8429424177317388, -1.8771490180058494, -0.3734173318252633, -0.2762427802811688, -0.7928622711081504, -0.008254099149061417, 0.03867071383442519, -0.006652525659581196, -1.7386026632120495, -0.12324413292367106, 0.005372331983248711, -0.7431688164723261, -0.8852299034511076, -0.2539108489961016, -0.22465949523481338, -0.463800077430359, 0.023751135163357653, -0.23226134750060753, -0.8433773177896027, -0.29835596053167224, -1.2831612821658973, -1.0707794753668147, -0.019631388735609233, 0.07722623274533766, 0.06713858913220973, -0.5023436225824279, 0.07468031741938534, -0.42074843917910293, -0.40261392742567925, -0.5862204734150799, -0.9266839595596383, -1.8553252708567958, -1.2471011757917247, -0.4568552102556933, -0.3430838703409903, -0.29274411209064255, -0.3926319849785296, -0.44439743485303423, -0.2143957200594155, 0.009290933402832125, 0.038211686787740354, -0.09629777395913665, -0.4445911551399433, -0.946304253241272, -0.8785304762388522, 0.011863804428258467, -0.3043952125405927, 0.08710601478883663, -0.6325244453864389, -0.5206454557438001, -0.26245884157903016, -0.8896977298625557, -0.039935996222506924, -0.4569091919011636, 0.08936667225238487, -0.9343511167128539, 0.03788798826168858, -0.3328094944776347, -1.0882315938098401, -0.2172241571393093, -1.0559438268471257, -1.0694916396286804, -1.017758205260682, -0.7312221302367299, 0.09994998537368974, -0.17631880226248361, -1.594542583124353, -0.10831899063985014, -0.28864912284163674, -0.3891859201966302, -0.9647597157963803, -0.4265107652813651, -0.9621216826909811, -0.25796672297427703, -0.6749540340088283, -1.0834568108007367, -0.12214151589041297, -0.4580812670450543, -2.3609016354864245, -0.32750498867484273, -0.00396240874750839, -0.4287409969451849, 0.011771874492149628]
[-0.03939720541640999, 0.04922931771986719, 0.20196383714861568, 0.010509484676493883, 0.11657843222638094, 0.03909276542218683, 0.09049922638857075, 0.017166355668521444, -0.08308812075674206, -0.10151610656022927, 0.055081757451705744, 0.01532749985976133, 0.0015074478855221416, -0.6141868638043188, 0.036805014237597695, 0.029504934329939114, 0.25757354031760543, 0.29459142565198404, 0.1613983212076334, -0.6147047852353776, 0.5036939417237734, 0.17408953663182838, 0.13763178099336199, 0.10529195163481439, -1.4124750197182172, 0.37410412086239625, 0.1178219419146561, 0.29484955221310444, 0.014852096335320092, 0.006642383372840184, 0.0024502744967259014, -0.04421260384797065, 0.06899662920904714, -0.38553544170410114, 0.2433339094170082, -0.08135324422625587, 0.09654945933003792, 0.2657424992414145, -0.19354239952975824, -0.013214793063668778, -0.08136446339766644, 0.5247087027566676, 0.0006827397575159197, -0.48688133614177614, -0.00444784999295909, -0.08033723752774101, -0.007827889695006347, 0.011143761303791902, 0.061523989729532144, -0.03497831285341032, 0.07704430525985884, -0.035224157609092185, -0.032733810442197614, 0.0036612517211888716, -0.029827142525137528, -0.09883999583944002, 0.05339049606408311, 0.08985245192232619, 0.20061827358101433, 0.02236846120146765, 0.05247567869398003, 0.22018113284917018, 0.10107487795919648, 0.11737522425599763, 0.015532331084621187, 0.20762752977582635, 0.018986654845932545, 0.04399432776541468, 0.1160023784629655, 0.0068072813718204625, -0.09504419691855241, 0.33187128327538057, 0.1639386701612813, 0.04593710680006502, 0.0674083845453187, 0.2543453209877044, 0.02479414954314453, 0.2203150880962737, 0.14463540047954127, -0.16221384143318454, -1.5273472580286134, -0.05285473347324016, 0.21330248422695788, -0.00924757441162108, 0.06594046245361965, 0.23853396056300927, 0.19682010639040926, 0.021525078506058577, 0.15548607543446583, 0.04016047830798819, -0.09048735537838856, 0.10797126600592162, -0.017591971945739207, 0.33537830591575357, -0.00959950774509745, 0.01498899738190782, -0.8826940701644748, 0.07078855568590357, 0.36024882259766017, 0.009867198774487959, -0.19267228293385388, 0.08243205335968737, 0.08016367604603457, 0.2770481460086911, 0.09542767896265607, 0.18111865236392835, 0.15264688816404112, 0.030637922247858895, -0.06190963125458771, 0.032317402905785955, 0.12263830171854263, -0.14160960474117304, -0.15353918900237537, 0.17260238384338894, -0.06592471560722288, -0.3702851708189649, 0.007121938620355471, 0.14149716725763822, -0.08023528697592829, 0.41594148829500294, 0.17798584722081917, -0.09655133770166949, 0.0553557080858177, -0.20865511549864638, 0.0033984721729078743, -0.03646086351971904, -0.00021504423385401337, -0.13325784614080322, 0.12426579550075958, 0.08965806730790782, 0.13282369353176235, -0.013603744004975622, -0.0820155673586324, -0.08914456135604959, 0.07045293343860166, -0.003092168818309435, 0.3441022402098418, -0.008321328565791604, 0.08096321796633171, 0.08935771685948503, 0.05965584370199536, -0.10337967726230614, 0.381333776381653, -1.1453240774454954, 0.009497606371641614, -0.04604470160492798, 0.18079012086917196, -0.1643575181886676, -0.19421661062138304, 0.1698029401653623, -0.10302474413185245, 0.010686832504199816, 0.01407528902950426, 0.289603326991509, 0.058823012234679804, 0.047653951364473306, -0.09780346514958095, 0.3074071416182351, -0.2511356882171056, 0.32823113733973297, 0.0456704180954386, 1.0237910651839752, 0.2424922634847852, 0.06442739701634306, 0.04084619716032852, 0.023240513801282753, -0.0035189716596555265, -0.08397006702759201, -0.01247029908423556, 0.34690367903683506, 0.05739605768182518, 0.09743912141647443, 1.0033625288725483, 0.0228889224204505, 0.0009390776926248687, -0.5860139534264639, -0.1221235248353764, 0.07907053510194198, -0.03599479307607358, 0.025291185090534872, 0.0012759455741949925, -0.03243616241056037, -0.01155461650862336, 0.5033040925908302, 0.08196825413920855, 0.007833987951043056, 0.038734294274223625, 0.33406165777668334, -0.20796018385242893, 0.12528693291435417, -0.18143170867977562, -0.01682010450074074, -0.060872660599533515, 0.022500034359971714, 0.019861952505029125, -0.07958464856692772, -0.04550480340349962, 0.04919847007831428, -0.03604876736693612, 0.19272810180882963, 0.10875547914289964, 0.15866071791130743, 0.3252701272850036, 0.255323651537972, 0.4350872528798155, 0.22942202578578386, -0.15572862852322444, 0.05569921535676689, 0.023388048994026005, 0.23684379055203403, 0.10673674485836787, -0.08095782145437878, 0.11469103542564608, 0.0034703068496288983, -0.39389035826643315, 0.17167103912077772, -0.005796930134432604, 0.30094594817706355, -0.08520399573474606, 0.3093012432650686, 0.008540748744716525, -0.09051678239659938, 1.023943253449041, 0.06578389592323915, 0.2760911911490263, 0.35233435731241625, -0.04316275414829294, 0.23348109734013145, 0.3800317600124792, 0.30264841626798583, 0.05269350119566191, -0.02928416529727293, 0.2786877423712592, 0.04205204078737262, -0.27729941510884093, -0.06990813725154629, 0.15432052755693582, 0.3356622539672274, 0.19075264618951498, 0.5773049364742496, 0.10957124206967579, 0.010730370431171872, 0.09119445618517813, 0.041243977118212066, -0.038390812148699306, -0.023453963898533502, 0.629090116932096, -0.03823009317380059, -0.29996806037388823, 0.021311794614571784, -0.07973474326825537, 0.30647394195939015, -0.038360040227329445, 0.12968445734795844, 0.02612125468016059, 0.1109596116002062]
[-0.025453629266930376, 0.002427764503493933, 0.046792542390779186, 0.03473925347583526, 0.043920204650553525, 0.007552291838549615, -0.14604994478046338, 0.09960361988600104, 0.013437784755981305, -0.175577129127799, -0.012618788993538516, 0.028155150847267187, 0.04338247088703868, 0.0339380401576557, 1.3456957623776022, 0.004994411925638819, -0.036321437181551036, -0.024745906020473156, 0.048250772931790316, -0.03428647016371615, 0.027791472854367835, 0.05056655530752345, 0.03567769252125645, -0.14115126361013255, -0.12376419389078884, -0.11701518664144166, 0.02964404911419582, -0.05501593358183521, -0.006890494477847472, -0.12474613711288614, -0.0802204592799402, 0.034000679247756245, 0.04658998644760527, -0.026742326944716732, 0.008220189828959697, -0.20087537289019197, 0.04583111216654577, 0.04262619861696589, -0.16841062922793842, 0.03760190676214799, 0.0680948749584414, 0.028277710739718496, -0.010072007396786068, -0.2075243924033081, -0.01825335551832702, -0.10258186514923208, 0.11254602237127735, 0.016792699093662728, -0.16696179908797987, 0.047865891442581736, 0.03172716191599665, 0.05547427892584824, 0.008704421687409408, -0.194230443482449, 0.032598069860618036, -0.005713275715318945, 0.0285295530233562, 0.035415803898525576, 0.028869123380523293, 0.020415591789616442, -0.009347319681787598, 0.010834426967659858, -0.0749284602267435, 0.03134629467882166, 0.03352040138502225, 0.05426452729282761, 0.008303825076859696, -0.03779553931659733, 0.002311185900622536, -0.0489549214440333, -0.11447251905260283, 0.049397111837441304, 0.049481383597198746, 0.04641474745888413, 0.01087986022023142, 0.04051710174650398, -0.12831146163307305, 0.02922380950737984, 0.04461918622028831, 0.028856546392984458, -0.1589309811797774, -0.010941211837130677, -0.09268812369757613, 0.023737972240860414, -0.04708402382734293, 0.07316074938444879, 0.03454520106202122, 0.02889687680950221, 0.684728167402173, 0.011162275145536867, -0.17809295098650843, 0.0010424343223452972, 0.015045680705717478, 1.0149590253400786, -0.03109668613884435, 0.010832924289492264, 0.00998890030145473, -0.002026897562231432, -0.13622885469452206, 0.01701901562968162, -0.008198957125490762, 0.025852157817856554, 0.006598448789587693, 0.011871943442621272, -0.003564466714801426, 0.013361477300641007, 0.016019066787608952, 0.6881491334491374, 0.004254855485830229, 0.044361831636227256, 0.03528876830987906, -0.23206462470056094, 0.022097720270233923, 0.015386036498387849, 0.04093956568238596, -0.13129257813195352, 0.020391507302740218, -0.08977748583530748, -0.039725360909487945, 0.03821680658240912, 0.022667220069941204, -0.1435687915423978, 0.035804444243148825, -0.038272955948279425, 0.03355421113016767, 1.0523627795538828, 0.02188422863102997, 0.018046375849742807, -0.05624505060670159, 0.5771198933696093, 0.031245945545167193, 0.04081589164589521, 0.005880028740180149, -0.14844189407724928, -0.20079807454688178, 0.027740660887566864, -0.018028885779664355, -0.011570347020089857, -0.1960507439228142, -0.15978032531970107, 0.040848431346850816, -0.022187183900443986, 0.011111988649424184, 0.013157496977191261, 0.044800003142873114, 0.010188950681730684, -0.1852549951898297, 0.9823087573651488, 0.02624544842811159, 0.04686774480762431, 0.027938857765842966, -0.09623767299802857, 0.017017267178776066, -0.10976397416244463, -0.01921924923772221, 0.004817578257792842, 0.03611192822462524, -0.0338147944033074, 0.03387023669296871, -0.09892737587399181, -0.05037602264920647, 0.03055428438899478, 0.02352128447810705, -0.16802668261629186, 0.8179574252671217, 0.04258055564536282, 0.023076859873948242, 0.024668830683721228, 0.4352101165722331, -0.16031724352039492, 0.05300536666188584, -0.07939035629221944, 0.010146266380399522, -0.0028939906348291787, -0.12356638246703418, -0.034651449531336684, 0.04019915285243481, 0.025002990008401074, 0.10230929665806565, 0.019746829401049784, -0.11390405774063525, -0.18141316482561687, -0.004968145414409894, 0.024170194761356012, 0.01952100183626826, 0.07136738112917713, -0.14410882314481163, 0.013926858139982595, 0.007385784857104656, 0.03563152150695293, 0.049403295537495374, -0.03794232837043392, 0.027489627326531253, -0.010535499635167223, 0.03140039372273041, 0.004984563621862064, -0.15472261594035278, -0.008886557835255028, 0.031580084858939775, -0.008960105418403039, -0.12202439135649816, -0.14627774499467797, 0.048921164540864225, -0.013862968080985891, -0.12071413603454471, 0.006281378764841521, 0.012508767314848093, -0.0034951979291903404, -0.1152614769909453, -0.0016419007829863294, 0.03790834427654298, -0.14600011200952565, -0.0010402250095676165, -0.014555018629878394, -0.07063972130336713, 0.03850264306316723, 0.0351426966374946, 0.00626033040430938, -0.04825034579014675, -0.04569551530505224, -3.6108655312829094e-05, 0.41173409071335676, -0.18569727604152117, 0.03644898275227127, 0.0026338492632312456, -0.016745610771900336, 0.014899975824725097, 0.027900436527064167, 0.5065720989147486, 0.022719061227682177, 0.024853054714754554, 0.033647425769787825, -0.005682407321556537, 0.4137155776174358, 0.011894781209521775, -0.18704520800198424, 0.03333547823009829, -0.046961149834404775, -0.11167460758239427, -0.015726165982586388, 0.011229319804395343, 0.013316267493802717, 0.04177522601652019, -0.16294368179121227, 0.054616461482929125, 0.01326605312923807, 0.03131932441510837, -0.0056594489105743035, 0.04089431824253644, 0.05338689526650849, 0.0016537348036389956, -0.1121608740081721, 0.02530028937477028, -0.10815184433717749, 0.5164080887967506, -0.007153248331166957]
[2.5189913272428295, -1.9316362143216879, -0.5873551129211366]
