[[0.009265409327284096, 0.23961089239582117, -0.6693190888419374, -0.1562555196237792, -0.17862229333051155, -0.720484047666759, -0.28949029011290883, 0.45926468318307034, 0.08839007585227882, -0.002696217710385793, -0.004079338087284133, 0.2028241683194357, 0.464512300482677, -0.0209541704366807, -0.3802126204357949, 0.04101697155061531, 0.09502272020527501, 0.25030303739488785, -0.6973550086617296, 0.004168169325531475, 0.49867088298228246, -0.11349368592210209, -0.09681673504179265, -0.006920298368663063, -0.16197280347974552, -0.054800864959697264, -0.022648086036441892, -0.607953874036576, 0.04311267556903591, 0.7576129881476967, -0.02529808614524939, 0.03856820545013132, 0.6877280718218645, 0.4339855904856986, -0.4374332771357143, 0.12291542853694376, -0.20185466319303927, 0.11903547570978242, 0.014886835474296596, 0.027508693544433957, 0.015313312542256088, -0.11212376894967585, -0.20823547770221312, 0.33899786872165066, 0.22523431969377128, 0.0011305377984901482, -0.1437318749346903, -0.11916351513148535, -0.08796393630383025, -0.0048679629085682284, 0.02749605799926878, -0.15153203300015922, -0.21954951207479717, -0.05282638454842699, -1.869076405960976, 0.05678366811715172, 0.1088322269893726, -0.07070491758555889, -0.013351581211292703, 0.6915151508328957, 0.03685620165936178, 0.031242178343052273, 1.9732642519642278, 0.3041329991910632, -0.23414332514417927, -0.05956223335379423, -0.236166888994664, -0.1299497382148561, 0.1494272019866671, 0.03789215856917795, 0.08978016577097274, 0.04117997968102892, -0.003720155273342712, -0.4257648978302983, -0.5707486477083257, -0.2901726681442109, 0.014776058096681182, 0.03570008667545603, -0.06478881159841997, -0.02173302959870973, 0.05042020388859691, 0.02576636853850302, 0.0563084315829958, -0.1286783047577656, -0.20980584187203408, 0.11937212632564931, -0.13897291333920705, -0.22834550318843858, 0.10773603860163807, 0.23435089887050836, 0.1067023534266626, 0.1084829021538744, 0.002608132397896284, 0.04628541688886467, 0.06978668643862851, 0.08263263755922158, -0.18104456720260984, 0.10171748684918516, 0.008708947980534046, -0.04977879266736949, 0.03485025947864231, 2.1567807302392894, 0.3782810855558416, 0.05372915694109433, 1.0395444616462535, -0.10533098785403358, -0.0781631277396457, 0.05009250181248601, 0.01693846034705219, -0.025869794502036022, -0.3036013654186438, 0.11904410369021648, -0.03711815934461697, 0.6698736289519815, -0.23061021163502995, 0.06612526171037507, -0.03184767212287699, -0.20035687557513474, -0.19703214511987882, 0.08423095132529383, -0.5343559583526305, -0.050004200558598916, -0.09654567019050163, -0.5856613603363681, 0.12647227248433698, -0.07875625441419463, -0.017547241793544867, 0.020731062157284322, -0.26112763753760077, -0.17930589456802806, -0.15771779261619948, 0.15920809270616054, -0.01510066659790538, -0.2719961504636124, -1.130679888031426, 0.17283842741061028, -1.4134144810235858, 0.21458891139697178, 0.12946917492520596, -0.08382313159700712, 0.10023484127136012, -0.10832085090600423, 0.0021794926983766372, -0.07220156834952135, -0.0133703439940104, -0.27238103921129636, 0.3036264636343375, -0.12223959636773371, -0.7403849782297139, -0.19031664100782766, 0.12150558631087666, -0.14661806192199833, -0.18207008837807057, 0.25968696308581296, 0.48728058945451797, 0.3655174956536783, -0.7533484831797141, 0.1610756486218605, 0.19926716055391067, 0.028452247843009287, 0.10502988288699835, -0.07634991636408525, 0.9493017083655311, -0.05442851348653857, -0.7883686114700316, -0.11450398320054342, 0.1407031691359205, 0.04840156685619285, 0.025260416152507334, 0.14855160733812248, 0.18940723891693345, -0.2229026404654746, -0.021455376805305865, 0.033632006724604424, -1.3007189194090882, -0.07914976722811483, 0.05684642559652459, 0.3059867475966491, -0.22549084427672947, -0.08206518289543269, -0.22965781059412477, 0.7090580977761648, -0.5216550453133184, -0.23491037325978276, 0.5916278414564834, -0.36576275540078823, -0.9468219433872674, 0.30120692861996157, 0.21551934554594146, -0.019487273206917267, 0.3067926205790246, 0.4282460817784196, 0.028023790404179273, -0.3522755950731022, 0.26197308023343974, -0.0798873787100805, -0.027895590172889343, 0.02842099186632717, 0.19910817625084373, -0.022623492502733714, -0.22545369421067415, 0.19916593707034122, 0.11835047511286254, 0.5623610603924689, -0.24977076898052822, 1.0779122826359322, 0.12541753368000186, -0.026690525055654554, -0.02431267728997606, 0.15902996902779198, 0.21876036862886453, 0.09261309711723349, -0.05104943479401347, -0.03360954792429839, -0.833995766342477, 0.22690188041907627, 0.2749416499760328, 0.6455194563911351, -0.049457538169368126, 0.1619649434205011, 0.08908110114973895, 0.15112458208917068, 0.12282906298037742, -0.02619182471941916, 0.7997068660890012, -0.1679699835058736, 0.12262909789450799, -0.08422454120589601, -2.017193941822443, -0.005187577496889166, 0.13430174912657625, 0.8486137968508509, -0.16009831199870622, 0.5312213887430601, -0.3252809683735183, 0.3888617923543654, 0.56456517664507, -0.11619659242734348, 0.0338822170846318, 0.03132924110497641, -0.08565573162835008, 0.4913557266645544, 0.15811330630061043, -0.9073321873772011, 0.21239676203181773, 0.367830847642851, -0.02267448864739574, -0.06542325662328681, -0.18101274473923504, -0.10004269691646477, 0.22936299911949096, -0.3001044068549257, 0.07635234439386386, 0.11588042159791201, -0.23980205289921783, 0.03556526110371841], [-0.008000761492429039, 0.1752670874846172, 0.3688883329539503, 0.39679216836451714, -0.7807679057494485, 0.11535290342458349, -0.326814797032769, -0.757566647549909, -0.03360874760877459, 0.532746801362394, -0.05853046677275762, 0.18160605685742395, 1.0447046679302083, -0.08301175800450056, 0.4503017877702916, 0.4131633891801562, -0.028794778822613148, 1.545912538078227, 0.37935617718823766, 0.613281925363993, 0.9616493137846331, -0.26055228368637245, -0.09263971676226383, -0.06636946829004192, -0.2701169644328848, 1.1949942404488594, 0.04890240646010714, -0.29895799902324593, 0.9992317168480322, 1.1898996040470542, -0.08436331200055668, -0.039842935169758224, -2.44228596073146, -1.1994849862399921, -0.08029230319529741, -0.006459792057504903, -0.28443412898438486, 0.211660217659811, -0.8427970320867607, -0.024414641840955112, 1.1112581300400837, 0.4323738847556508, -0.43821234343691207, 0.03753648932810759, 0.3811670776250978, -0.06267630459275014, -0.6296468738347152, 0.965413564794562, 0.06039058090837097, 0.06190356316063991, 1.1533479491749101, 1.1842290383605945, -0.1013785980579968, 0.9482012210310012, 0.24392385025416055, -0.03154242125754249, -0.78668520011037, -0.06319913628429842, 0.05839257508063412, 1.0023247840938765, -0.04616573694157551, -0.03444439729670473, -0.8240284805771795, 0.14259100870229963, -0.1188831761586959, -0.27169522201513113, 0.01367066117942668, 0.32071191856274933, -0.0010214661601801241, -0.04469958129294534, 0.14078677840641343, 0.007463969486265373, 0.007871028925850655, 0.7606659873364489, -0.38414178178368497, -0.6184364952380551, 0.1482031322485845, -0.045605869655083356, -0.11444576714087644, 0.04998653653551795, -0.031087492750126816, -0.0316699871120504, -0.029556076150867815, 1.0748262129709405, -0.34879077635475686, 0.08359477572102335, -0.21382834616725127, -0.29927952752287496, -0.03386633467080282, 0.19287994565252722, -0.002947568808662278, -0.00016072683343593998, -0.06408235558785152, -0.08081059939974487, -0.040513353895283495, 0.001784440780096344, -0.30470909948716224, 0.002720900075350445, -0.0765581329516229, -0.08880802619114718, 1.1994284866363023, -2.0295105298096843, 0.3679694396508123, -0.03620450256427652, 1.1682837891633069, 0.4446952190504904, 0.052507128321312595, -0.028919846040502028, -0.033221114413157456, 0.04318852300846706, -0.4480513289210277, 0.11634483673716232, -0.1098802704110441, 1.491233105954004, -0.10680559779120583, -0.021711906207625677, -0.041137148558262844, 0.4551009395759881, -0.0930033233012838, 1.1279602988168496, 0.9646772755277814, -0.3770270803089452, -0.08908617747220243, -0.41201604989634, -0.8579482007608799, 0.054095017593984725, -0.07407763959074713, -0.1238040184381988, -0.13403542322070283, 0.40077561111048476, -0.32806188589148383, 0.2050023524191661, -0.06290394883754648, -0.13865352206198892, 2.474154516502503, 0.12675683547983588, -0.3682999929782128, 0.16032569354535667, -1.1158859259059624, -0.5271349199216858, -0.8913861396350482, 0.0762307659180727, -0.06646106737357634, -0.561694688429742, -0.1043167729726342, -0.7875904744969054, 0.3792271708855545, -0.3265017145876444, 0.5298738866436612, 0.4421950964978494, 1.2640669350733331, 0.6039749957950798, -0.2873146845712425, 0.19041803468337265, 1.3190628786004954, 0.8137384127253403, -0.38474458085199487, 0.22370757099690056, 1.002357249069282, 0.022710265775141264, 0.020599725134745228, 0.6830317612864205, 1.3701366958404744, -0.041277162532374276, -0.7927194280792328, -0.06312855699358198, 0.1606832014742742, 0.007000393015561274, 1.1530318000547122, 0.5813182231495639, 0.3239226699630301, 0.8049955156202607, 0.5231939624234554, -0.44902373923393196, -1.2886617827903577, -0.13649243697768837, -0.06352652284558821, -0.6032998737493612, -0.36544205779598854, -0.0234596464714354, -0.3648198338538133, -0.7829995647368062, 0.7772352534783811, 0.6944308078242114, 1.402344615374116, -0.3527404397544507, 0.2610110200824083, 0.13239266625602897, 0.18529467146946643, 0.04357939096430014, -0.010943591652815332, 0.7876845247019723, -0.04087553276987717, 0.8673042551337146, -1.0259503602669178, -0.06650394935493939, 0.05900110103237055, 0.020280063032620407, 0.22444445731469245, 0.055663637006787337, -0.03194275310359389, 0.15285686267818963, -0.7752467184980354, 1.882085402750373, 1.1614504409090773, -1.3851953662158478, 0.23196709854462824, -0.09698527215636503, -0.10413942935342466, 0.16112486788365868, 0.17255241372445623, 0.8833519717344657, 0.08813307847927644, 0.03328497450390757, 0.5233887963932528, 1.03251497223103, -0.4239396010918552, 1.2212046616615848, 0.08079853118664597, 0.8496155436799065, -0.02661956019470521, 0.20968398237396613, 0.6424507662906408, -0.1155993253443206, 1.1769386920212581, 0.6916710911427921, 0.18636343249744824, 0.00763776254503894, 0.36039623267455917, 0.019943918540127014, 0.11424634443806939, 1.1036474082844054, 0.41962795001682107, 0.9750699451121134, -0.03497727325987489, 1.5716097854942037, 0.7290568439939152, 0.053494620722553454, 1.1295782332645488, -0.08531353956215845, 0.6974466718263351, 0.3197875874796622, 0.15369918905160243, 0.10588005547792487, 0.15942481149803636, 1.1766624028967116, -0.09208028546384261, 0.6287680951783635, -0.24417528791986765, 0.23030524935443733, 0.17052078464073656, 1.634833627188845, -0.084225345416924, -0.0020416369716998056, -0.11649624252127642, -0.0008246172448854945], [0.011974263975149276, 0.020649764105159802, -0.563774693968444, -0.2390128596519083, -0.3217513339887237, 1.6119311119111785, -0.2907611168658736, -0.1741269851171643, -0.036296240698097886, 0.047933117413002733, -0.10790613561010531, 0.06232096341158444, 0.8802331936127201, -0.04098983815977722, -1.5970339891170136, 0.4507385200814117, -0.060927214703192685, 0.34508080958645665, -0.9287639752243979, 0.04621754523706338, 0.7209383717433329, -0.14337983178223934, 0.052060513270676484, -0.11749113737118994, 0.13618492567879906, -0.03127061476191341, -0.05672887866695006, -0.37168503677470643, 0.16310445932056414, 0.366391435010483, -0.043840078310123855, -0.14864837296800246, 2.480485488048124, -0.4309737618289324, 0.430524626828576, -0.19281195657692257, 0.137632968865093, 0.06083898845008581, -0.17727893454698188, -0.11347567062872739, 0.0643149880124122, 0.07213938580130395, -0.27710071294165023, -0.5739754783594225, 0.5733192948523512, -0.3218475480669322, -0.24765384401932095, 0.15488203597623465, -0.10521574551522923, -0.15965947271390687, 0.06083475286534154, 0.17904000336737178, -0.06683385573979518, 0.06500740158745798, 0.44903481891846414, -0.07965219381087904, 0.01503455599471397, -0.285853411915519, -0.17264146191614552, -2.7910521171135234, -0.13752435854796904, -0.10604511125560429, 0.49539772504321866, 0.39169497488770755, -0.08553277652172651, -0.13674872870580165, -0.0028068055162460055, -0.15872992107560766, -0.20137653041821027, -0.14096092756863265, 0.05234141521120316, 0.8792618147202507, -0.1691686927448993, -0.015751112374144026, -0.4378584756012588, -0.20179304245536056, 0.6033032364425155, -0.13020442003046012, 0.07971328587389576, -0.05924915544815265, -0.11584088446717186, -0.11893974138103233, -0.08053065525821075, 0.1415249725608143, 0.1359097586360965, -0.06542055012802847, -0.1474637646656683, -0.04985527276498707, -0.060175846876800894, 0.29896829246050133, -0.16511544417404478, -0.11708484194598723, -0.30876725510954656, 0.07252091224813945, -0.09590793935318098, -0.15562820911900307, -0.17159126290639937, -0.1894705617996495, -0.2788330720935549, -0.28425226639379964, 0.0956883135128929, 2.227339499477448, 0.2992447301846338, -0.12918614808314025, 0.3172211642652504, 0.030991637283196, -0.08910184018664379, -0.11053976620573432, -0.14764971440849173, -0.05164041822294253, -0.1855149196899298, -0.04307520193069782, 0.01576603345205623, 0.8060648573721119, -0.060741300990894954, -0.05501476326040993, -0.3361706376713213, -0.22080640448666716, -1.212489060571664, 0.006290643411028326, 0.14717943144605242, -0.11972753500203447, 0.04901682338165188, -0.21883950055033055, -0.20955316679435135, -0.09632667246764741, -0.036155683282319606, -0.37306518872484873, -0.09107336980453141, -0.05753243663363189, -0.07140553847549265, 0.5493437739079803, -0.1356673114022062, -0.10076698329182268, -2.463718187332472, 0.017091169144488768, -0.05051892710825954, 0.017009129078263803, 0.6284602681539575, -0.20864291107287347, -0.2755296678480859, -0.12821379355688448, -0.35271460433504886, 0.2358087020166212, -0.263598939727312, -0.2196660241135007, 0.23612733411187084, 0.1752651917475336, -1.929180013303147, -0.21416623895121262, 0.007694271974443031, 0.5408721069379089, 0.12223436381502567, 0.019995210930723727, 0.528049399331098, 0.6879788416565891, 0.7802609346908562, 0.5679132456391243, 0.23502925847129635, -0.07246026512324595, -0.1468778902852216, 0.16014797292236044, 0.28041723331433993, -0.18435465270826157, 0.35764701240850777, 0.05706621340927152, -0.019389080915933846, -0.13862939085032944, 0.0629993751813962, 0.4844433431555221, 0.4732406803808508, -0.22974919353607348, 0.0670610551479833, 0.25554374382968015, 0.30930315970485683, 0.09421697215248793, -0.1205934983030258, 0.00788524956153749, -0.24195224529568987, -0.2077603852511209, -0.23785985480533786, 0.14645363736170242, 0.07790983182522357, 0.10344567858630627, 0.4810773827814517, -0.11902685188929508, -0.6944039595500305, 0.42077375755454016, 0.06361009725346524, -0.053060305337679844, 0.47450143857795163, 0.6042786573804552, -0.15777349607086802, 0.16673720763157812, 0.011003521059268665, -0.2853083479513271, -0.23722589873846406, -0.07283997035420693, 0.08704815761735292, -0.2334564399062906, 0.010139320831105332, 0.02055521569010775, -0.2145200659896137, 0.48127037245232135, 0.9081080487476234, 1.4101178563477854, 0.06627623647265231, -0.304275614562026, 0.06338044553409078, -0.0142889000730403, 0.03212730849170397, 0.008234785934020675, -0.055884382566473434, -0.055088519843779764, -0.10137767984629115, 0.23470826477188167, 0.11159418641861422, 0.39784624417549697, -0.05861931458716991, 0.20037163269640035, -0.05646568548271538, 0.5415936472582218, 0.3010628095982439, 0.03197407134612786, -0.13457607987483675, 0.11003261178648498, 0.07514931657445145, -0.12094885132460984, -0.2018137862114865, -0.12747743197595143, -0.04905028345037154, 0.26894441408552616, -0.1813904689614909, 0.7485924338042919, 1.4222843047888378, 1.0043765073694895, 0.17734145056964196, -0.1774230019694243, 0.0637647606571008, 0.07697051884165333, 0.0913110912800923, 0.3447323674809801, -0.014479140083304205, 0.1027765383306423, 0.021920160627201122, 0.6659485620871726, -0.04713016977772305, 0.2790144220535091, -0.03509848814754636, -0.1387440227108219, 0.022054460688925356, 0.5558105405266899, -0.14256956287676817, -0.18177805347089007, -0.0809281588455788, -0.12887217891301087], [0.0012549419454723151, 0.07582972685846716, 1.0699683355796505, -0.12376849801133284, 0.09170013183946644, -1.3405656860753874, 0.05296009070644802, -0.24098675804518924, 0.12215098257113823, 0.42832167340764704, 0.22916666728019766, 0.0802094379900341, 0.5851719975490808, -0.041790978338087675, 0.5236359022369595, 0.5430006114780309, 0.14391746654972926, 1.102668312216657, 0.3224142403170404, 0.4905663752491092, 0.33510011028959735, -0.10485057234619646, 0.22231705776602262, 0.2539164199678938, -0.6123901285105702, 0.100299977019053, 0.10168856614495655, 0.2533049631379299, 0.30317869573079526, 0.3968097747790812, -0.04629359947524654, 0.18292620220167796, -2.1748903465926825, -0.5370314899952248, -0.07297919879112723, 0.19165814115630592, -0.6582019389902413, 0.10321810799043601, 0.022054699082834008, 0.16093281570375975, 0.2658185929720504, 0.42987401619255416, -0.20831350176330024, -0.15471459730413462, 0.14752172320233078, 0.21735046423324425, -0.6467610943535372, 0.3523700173350001, 0.15482161816911202, 0.15075969759573152, 0.2650191772930201, 0.4864942263271318, 0.23665060309171357, 0.17110536911212354, 1.1834850438547566, 0.1726509362159093, -0.3539116680953879, 0.2851215604828976, 0.16593695849356413, -0.04223523444755612, 0.1331776699481917, 0.10706037438565856, 1.2295342128468796, 0.1742487900407279, 0.24266424793496305, -0.39055368690873193, 0.2214313156818095, -0.07280790776736153, 0.23988553368609272, 0.1293098869642351, 0.061862017121676986, 0.07216428122433566, 0.1702754858584042, 0.43247718556108317, 0.2862613047231246, -0.6587168705910458, 1.9510854279193204, 0.11548873802761515, 0.30121998962835306, 0.10846620426953416, 0.1808149773475254, 0.12887697126396344, 0.18183472896949163, 0.4202969035210668, -0.7889944428701083, -0.0005489922244514504, -0.10546491850763025, -0.9430440588015448, 0.15001406881699753, 0.1146814748205704, 0.16883913033260184, 0.13872291865126285, 0.210317344330578, -0.899837791864702, 0.21007808382942456, 0.17230051016455378, -0.051698218620334455, 0.20984160793783463, 0.2127350452567309, 0.18443761076870788, 0.3107234979182843, -0.7460083107983347, 0.21104648228141393, 0.19405510696952039, 0.1268744876096044, 0.41927565682058643, 0.1332034657260236, 0.17848062516954846, 0.16645430250815907, 0.09446297497965998, -0.7143255655555987, 0.03366542091552806, 0.08606632867093687, 0.6997496823172775, 0.26081407952733343, 0.07099323034285462, 0.31961957644209965, 0.332731459597238, 0.6237814685234297, 0.21876471175057854, 0.3766817534264034, -0.5881561045655828, 0.22872100778947524, -0.8520335516149632, -0.18280055988793462, 0.14059669698404148, -0.03710475778002612, 0.23947901687971135, 0.2650337774553596, 0.4689718418794427, -0.623322611582184, 0.04178266986208704, 0.2636322495133209, 0.2735677661730055, 4.447084782623562, 0.05520303607559804, -1.7369157758230933, 0.06861911036264486, -0.3988735699943382, 0.03982788968971534, -0.24028818475362898, 0.19591737836981804, 0.23989076298527384, -0.39758980085431206, 0.18417772028364005, -0.4452524276225148, 0.11757648576781564, -0.9043160218778438, -0.7596153831232695, 0.3230703896403206, 0.14163785396743614, 0.5077355304926263, -0.6951860560673137, 0.08072235461272408, 0.44853570364216605, 0.46371018061044234, -0.7911444866459688, 0.04860107689960774, 0.4363041691823925, 0.17224545746764175, 0.15438377132944991, 0.4367118459396357, 0.17401754381911083, 0.18096204060225543, -0.6395404138865151, 0.1970655497040679, 0.04991228824958618, 0.2568771744248121, 0.25545147990658373, 0.46539007142763933, 0.1225184394274416, -0.9894834978147485, 0.20443740491818724, -0.49355115967850216, 0.5738352533610381, 0.3584752782914757, 0.11955708060705007, -0.602024843400565, -0.166280700715669, 0.2264593355050439, -0.17079491892557813, 2.5099613099768163, 0.5421289956962001, 0.7132131682125036, 0.3851060493395409, -0.7875428699451988, 0.4179879162712938, 0.1827213087882967, 0.08902329891110496, 0.09526664518541461, 0.14453228705164523, 0.26837181147236383, 0.19560021993316032, -0.060706119538341374, -0.16005655973282873, 0.28459837269494803, 0.25057763080549, 0.16973354013312972, 0.06488708024724846, 0.2532129626463305, 0.2793655522428106, 0.06255965342420333, -0.38722804308358016, 0.5255571145674184, 1.6052234034818424, 0.3031499346587858, 0.1108174253536444, 0.23141632824222189, 0.2110798874499058, 0.0626042056906524, 0.08078104224843582, 0.1005658181373059, 0.13049548061059557, 0.10822474206831488, 0.768755657784563, 0.3221826948017189, -0.544847105021461, 0.4761024031024522, 0.12381170015347065, 0.35415184688074364, 0.12576154826845345, 0.04006151051324641, 0.18561552300057457, 0.14370432393619934, -1.2147346177632505, 0.5968297287545563, 0.07539995849063702, 0.20672202779354845, 0.591244717353627, 0.1326758638180206, 0.03981167849226139, 0.34183947535655473, -0.02634141286201351, 0.33955959023121274, -0.240443476359367, 0.8244430362422961, 0.212741589522346, 0.2075403884501859, 0.2606785001985333, -1.114146439940054, 0.29048061124865043, 0.30199083562323303, 0.0610632534197086, -0.5771346054220106, 0.06610912790588418, 0.20615539056983725, -0.04467035653197187, 0.38216963072106286, -0.794220493452203, -0.07430719080364154, 0.07485287576879097, 1.685609910017876, 0.14780766137008297, 0.18078239911118574, 0.2584030205718202, 0.25891253937417746], [0.026449457565819498, 0.20071308643088387, -0.46960557244459994, 0.36716781275807114, 0.8220184627496838, 1.6217598516224705, 0.055775714692764385, 0.604714753110109, -0.14532167640189012, -0.20096002622202475, -0.2125385932763956, 0.1456274128549495, -0.6452765142412031, 0.2509983137533992, -0.358044919496937, -0.42173772983918995, -0.1898452235244645, -1.5112613028192532, -1.1365227395363064, -0.2171012655083228, -0.632138555384118, 0.2510539088028349, 0.26135742944712864, -0.23733034890858484, -0.13353395718347455, -1.0717686385974736, -0.08093196574489547, -0.1901377007535676, -0.7367546936312523, -2.012995219655093, 0.26401261468279785, 0.3111799471480273, 2.437162370316037, 0.7812538396500869, 0.8569644030595461, -0.11839809878658168, -0.13400308584996276, 0.10624034757216026, 0.44589615096221563, -0.17453941270494255, -0.8103478147300893, -0.12428574872426987, 0.4107735546821409, 0.5410829690489537, -0.2646424224578988, 0.39412777296871565, 0.12949552059151237, -0.8040523052222672, -0.18242198769855075, -0.2368198843497636, -0.8451881353356044, -1.0624378825963066, 0.31108390281559495, -0.9165858219560397, -0.8297432148575454, -0.04403696326431301, -0.32981819792325007, -0.19355946019904124, -0.26570852582527044, -0.5935689000221736, 0.31689040430782445, 0.23699032687178984, 0.9879066980250707, 0.4565251046483141, 0.3320649887373423, -0.04655314195258702, 0.21892313740153566, 0.2908786613044475, -0.11114416986765845, 0.31592293318912124, 0.1030053418076452, -0.11923489777721273, -0.07066243863634675, -0.990379383622981, -0.2412716469547966, 0.07701056927641728, -0.8188596323299229, 0.2906658435049706, 0.2272253453022055, -0.08734358378671757, -0.02992961983258568, 0.3132417689827622, -0.04335551234489504, -0.9135412588796114, -0.20705199376634484, 0.21043062275075405, 0.21888987628448137, 0.1105831120375998, -0.18762602191372815, 0.43720693613424405, -0.09516830625007575, 0.08441758165112055, 0.3809800497884318, 0.10273152068492865, -0.05098381462600136, -0.10016700701657136, 0.25167868821432143, -0.12067271307954755, 0.48879829086534055, 0.4185914168743289, -0.8936012182230555, 1.310366808303119, 0.4382234599210399, -0.03634747303474057, -1.4288960768881094, -0.13953897053860448, -0.15432148552503536, -0.02658518343612648, -0.05384335770702328, -0.09646513996884176, -0.03519702842147147, 0.19032650991788624, 0.2133225706093613, -1.17849926270878, 0.3441841846089743, -0.10227940829335479, 0.44073183837116386, 0.22604154520236963, -0.30458074374570515, -0.8214660535214612, -1.1381039777761157, 0.03604018919991913, 0.2585724541531715, 0.3873104463149397, 0.3980927900182054, -0.1647813034847199, 0.22517776955950208, 0.46469408622504155, 0.37264456054710093, 0.08752745298845188, 0.34167453710938583, -0.042274443138198003, -0.2402730260594814, 0.3833984878178645, -0.5981774003159359, 0.14782215891324946, -0.0787884719514838, 0.1843114967322935, -0.27690004477993335, 0.5381792727712761, 0.3355968431088126, -0.23085055731688478, 0.4302475130201971, -0.4796212444656949, 0.3875130103330012, 0.3299214784329946, -0.04169485021891588, -0.11489316498382607, -0.9545052928767933, 0.2201646333336813, -0.8833664803981208, -0.28083488390957534, -0.15094865914908734, 0.21939908166564803, -0.556985381724747, -0.504841416022836, 0.051294528771024944, -0.04647541946025368, -0.7211727751342141, 0.019659962299473876, 0.07528052104457908, -0.30800880866031666, -1.2356607251321658, -0.13012554838874937, 0.6995224927705611, 0.2617726889501404, 0.1864389104956508, 0.17573924712891972, -0.8430075119610809, -0.4775263153230951, -0.22220420176848193, 0.6146610968343431, -0.3160850023238924, -0.4272185170421988, -0.5414893024350512, 0.26951037078119205, 0.357391105867217, 0.046881819191304526, 0.3583185015399059, -0.34427848419513984, 0.3699310458431357, 0.007160960128172971, -0.9988261742673614, -0.42966627896071397, -0.8759664301952987, 0.38443877081963806, -1.9299163315432208, 0.45708370497637835, 0.1563254402489031, -0.07628607621567254, 0.6069482082451583, -0.5142636452179561, 0.33363504644837383, 0.7324333108300731, -0.35220245268328265, -0.20598176709591498, -0.39165693366258963, 0.02160206695946015, 0.13933976563147932, -0.3878215826662466, 0.31077896078261724, 0.16417281928212316, 0.17276963500873388, -1.3519873182652395, 0.28588333152276685, 0.6879559147002646, 0.10610173067363476, 0.4597437992914177, 0.2440075698307303, 0.18539826487269961, 0.17023468871259334, -0.6174108676415364, -0.19054450819994487, -0.10568842451419384, -1.011258222630395, -0.7546052742295994, -0.2474989569958836, -0.5553798259765496, -0.17518415443446156, -0.6191533551674541, -0.1686410172509766, -0.043289496379370206, 0.28748367140934905, 0.2471181563765945, -1.436855743586286, -0.4735439070282416, 0.13837792048191236, -0.3192510528141128, 0.11921914401162013, -0.20181819367334747, 0.1998602563123766, -0.4608871580006221, 0.3171887062504698, -0.6356151886855997, 0.08675253676521295, -1.031782759040231, -0.28433066444096816, -0.312328536769027, -0.8268189395466592, 0.1243202650645552, -0.6006002121076137, 0.49502808144951604, 0.18379548739442772, 0.6521113299482634, 0.18070018417948053, -0.8658829337894138, 0.2752536810094367, 0.5468520545894623, 0.14102019674068164, 0.2585640483320468, 0.18635622719686373, 0.3076320988334155, 0.431153040960671, -0.1082395540725165, 0.3416054412561281, 0.1659186722613073]]
[[0.009651594998750332, 0.014814000155873523, 0.0037508411160504865, 0.0030238877758731095, 0.0036507916598335663, 0.006228430082615722, 0.0076685213786579715, 0.009500241776686888, 0.004409100069239318, 0.006337423068305445, 0.0014993303943103373, 0.012103086907700573, 0.014961867013512754, 0.01154585321208913, 0.009317434654089782, 0.00953867473982537, 0.010070124975680723, 0.008402623050012367, 0.010033369647737668, 0.007225336614248783, 0.009563598531731318, 0.0014676476161512334, 0.005947444158355143, 0.0004297833458069759, 0.006020165571131988, 0.006017632996853934, 0.009654637457911988, 0.012531328730113932, 0.012402114766458248, 0.0004844631420863348, 0.010317195035418149, 0.002612238463520273, 0.01173909096179372, 0.00073243164103448, 0.015127143839092388, 0.009973974652553886, 0.006730986905065438, 0.009805488547040645, 0.00754819450641468, 0.01395612872551388, 0.009055163226217602, 0.007287254024600464, 0.00958951725088206, 0.0017929952419242098, 0.010697824832378239, 0.004529975128779866, 0.011992467320157643, 0.0068157696859730225, 0.0053578049529017496, 0.00169629576440329, 0.003108583298645147, 0.008005380092621021, 0.00644937961952322, 0.012924140626303154, 0.00821214402778863, 0.003142718844838004, 0.0009747750507393214, 0.010357649157687955, 0.005584646546050066, 0.009896822953446967, 0.00965139996034472, 0.014031003584875983, 0.008651098161093253, 0.006693021654622868, 0.013421104434940146, 0.0024884130939471856, 0.005782378792107481, 0.004794978327359012, 0.0037791041354020938, 0.005652283105550505, 0.0002642596145794991, 0.012243239262634856, 0.0033243122026528314, 0.01360092364501489, 0.014885684631224493, 0.006899441562395584, 0.006286192670247277, 0.01462103458329395, 0.014620152296292857, 0.008899891682009525, 0.0032089789023718226, 0.013587191021867975, 0.01363187218325555, 0.0013754872813190292, 0.007081989938750396, 0.0009037155382506949, 0.00039620712945256595, 0.009263843690474664, 0.0023564268603892915, 0.012495747057562148, 0.0028701024356960468, 0.006082320598051988, 0.012425397357461938, 0.00215229813603758, 0.014204636528909775, 0.0010953063228868814, 0.001047536216659203, 0.011479737088484812, 0.008937483125500472, 0.00017471848097981287, 0.005442520648731931, 0.0073096305394369995, 0.007750913694187188, 0.005097972295089186, 0.0019394194111336475, 0.008768387994341842, 0.005090690995351419, 0.011362264492937642, 0.01058140293535742, 0.013390155184329473, 0.004453676366142285, 0.006555808287546282, 0.009457752498931857, 0.004274936910745527, 0.008121359035184147, 0.011690587302444867, 0.012991587527539627, 0.0035747260807116425, 0.0023611889456368784, 0.013480084329999817, 0.0037588210715734888, 0.009549058495343968, 0.0005404438310740681, 0.012352156760859247, 0.004513862700754271, 0.013267114493458652, 0.009131554991452023, 0.003826355924123787, 0.0026751022221757847, 0.011530210425183422, 0.007987671192025094, 0.008168262988948944, 0.0007243252177063776, 0.008800340988249675, 0.0058395666709894645, 0.0074185944743988, 0.013246098336851583, 0.0041712766660165325, 0.005374836353154919, 0.005673820868795955, 0.0011075941902714077, 0.0111455672583768, -0.00013611508163551868, 0.010930476754848387, 0.007103866392884371, 0.0005869802513761651, 0.004338058987341407, 0.01274320034366565, 0.0039411532391192255, 0.010165098269825982, 0.002306183440051828, 0.00026599796316952273, 0.008458352260026666, 0.008591532003013495, 0.0010320796008814793, 0.006852489529512404, 0.0033222172335694404, 0.0007835279780714028, 0.014953781893939587, 0.0043569351069618015, 4.639811688867241e-05, 0.015009469553856942, 0.007898375503841983, 0.011315108225428971, 0.002194626916652012, 0.012703079120651677, 0.0025683172353094612, 0.014491092238499247, 0.009436846403697366, -0.00018648885957709926, 0.01329961727796922, 0.0020139417680675596, 0.0037011352144820653, 0.0031260573782523164, 0.014294515114283772, 0.00960352293187972, 0.013864580971241876, 0.0048636207230325895, 0.002945437028851977, 0.013976169983368278, 0.006795077451047231, 0.013435031269175007, 0.0014835835319748057, 0.0138811423118903, 0.015023321992455844, 0.003960462824612076, 0.0008924748432696685, 0.002422094236833277, 0.008636540955972246, 0.0047711126449833255, 0.004263004724655232, 0.012872757768650267, 0.015193653683254416, -9.794801627328959e-05, 0.005541910428351518, 0.0031142808966044383, 0.004299906897227351, 0.004695421875129645, 0.013433689605687886, 0.001359202576525706, 0.008464601109400864, 0.0017796188313425314, 0.0036023851535451294, 0.002615921710856091, 0.0074001765443774134, 0.007717905337096662, 0.010000754284064349, 0.005341427787987293, 0.011403520201004155, 0.013018926694289931, 0.005601293261560385, 0.01381424959029743, 0.0019579975111633815, 0.007902307566616446, 0.007955001625028178, 0.008605066029813375, 0.0007221836189099461, 0.012961333830961215, 0.002948700942813592, 0.009202269801285651, 0.007600724900917317, 0.015118781715651869, 0.012813424913215622, 0.0006336226448336255, 0.014776951243644981, 0.010776871660809142, 0.010690407648539754, 0.001340563230897326, 0.003668833394412555, 0.008672817864004957, 0.003825510915428839, 0.012185572300668057, 0.012905606010601638, 0.01068888165682783, 0.010215355073544385, 0.003201197747927685, 0.00660066185502325, 0.011844071705723139, 0.010422035148469653, 0.011566610513711263, -8.599167339417862e-05, -0.00037172262134535, 0.0011004493038075677, 0.011770222690252952, 0.0011700599351010012, 0.012310578482890463, 0.002482843837682735, 0.005463178488871252, 0.008678406554082902, 0.008920535620126348, 0.01287174135444935, 0.002596619351645496, 0.0033696124202536675, 0.012693757641283776, 0.0030921449376694345, 0.0013978304729461463], [-0.0008979024504798124, 0.009626266742050783, 0.006489105682585399, -0.02868544639843292, 0.02859464029734751, 0.004008239931367295, 0.022629467467042138, 0.036111481016443785, 0.04302526609541375, 0.008806238774100817, 0.01478499274647037, 0.022467728664104562, -0.008770592516751559, -0.02862413188635755, 0.004652595433018787, 0.01642437185208418, 0.04883255499231372, -0.0013621663615826706, 0.012322245739395549, -0.011395972137136098, -0.01932002965792726, 0.019696792180480687, 0.06437633102451595, 0.06939310081175938, -0.007558349473053344, 0.0034598152700067494, 0.008827054309726553, -0.0014981898932629142, -0.0028916125397292635, -0.010731036973211094, 0.06352318813118824, 0.052883757871022154, -0.001768263923352183, 0.030424916566231395, 0.005991071960842493, 0.005826125196087155, 0.006384940930955614, 0.0044920174921521975, 0.017394097957047116, 0.014589724201344528, 0.01492638816329588, 0.04590239501782258, 0.02321298540945539, 0.016894638957532567, 0.003810713116863805, 0.011063639483237775, -0.00013731467727294664, -0.004309194840930723, 0.03285987108204217, -0.003936762603005709, -0.006761111989377664, 0.009228144629495382, 0.018534379539629865, 0.0364356428796225, 0.0003617509147189594, 0.0434420653179894, 0.015629766518595604, 0.046378273571763405, -0.005166360811761581, 0.04615488370245306, -0.02193261464930271, 0.03778766929523047, 0.04562872995884718, -0.014402658855054266, 0.01983880914723218, 0.028233925822664048, -0.002296279835101191, 0.03544001894329712, -1.578075171694188e-05, 0.010400655284034771, 0.05518817045259176, -0.0020078566694280366, 0.042764970755172854, 0.0063578640893653575, 0.021099807017911462, 0.03591334693747591, 0.016957548229558507, 0.020064548221202044, 0.01344143777143457, 0.0003500616662422119, 0.0016508783687516025, -0.01633596409461203, 0.0718856328100246, 0.03320999834816338, -0.004203107271464241, -0.0008056194964457329, 0.027971410233926748, 0.01919498205797752, 0.018340145099324977, -0.005604808504274575, 0.00217229650663251, 0.022073749332504423, 0.007121279774130705, 0.019352736053902496, 0.013718106061975585, -0.004118819037308233, 0.015546292545673553, 0.04257193524678799, 0.006903805336743983, 0.01879834529478801, 0.021903367777688924, 0.007822111015676897, 0.02580083371247063, 0.02493304417455254, 0.017070290409788982, -0.006789430764557155, 0.02534046370677117, 0.02815796703673753, 0.051814721437990374, 0.00863167344039968, 0.02365096914060265, 0.028133525628809324, 0.0362185023578312, -0.006304560696266167, 0.021562470267329863, -0.023121938897639915, 0.04656260308931248, 0.014375736818313832, 7.510611263970092e-05, -1.9221962512995081e-07, 0.005188815894581847, -0.008963350504736577, 0.00039491985913152187, 0.019814519728797452, 0.012711795953424608, 0.0012009673444448156, 0.010606600332315762, 0.023411542588467858, 0.024949281602611187, 0.038016378314332314, -0.010043002994121458, 0.02117162025302017, 0.017241339781571396, 0.010434193436393952, 0.02300609435057983, -0.01692751390590192, -0.0002669054714979367, 0.027398094926229584, 0.019390374179229057, 0.0040711565651100545, 0.015934010886327545, 0.0020228125328685905, 0.03948934495121633, 0.02641450318630253, -0.007862912277995529, -0.022308567410518967, 0.05085916864790354, -0.06636758227198222, 0.0011682727595243958, 0.014495672005310337, 0.0005703393608884864, 0.05691887556107096, 0.0030706432719395074, -0.0009642369065444765, 0.04650388818329417, -0.00867006895798241, 0.00951514243068848, 0.030973898403146936, 0.03694377853027785, 0.00834694003888549, 0.016929602020632466, 0.014583637869149667, 0.018056963623872314, 0.029894966921243604, 0.02813439049119507, 0.011146397467771674, -0.0006571371978365741, 0.018477588810716206, 0.016798351366661364, 0.0864723612721614, 0.04408296912187743, 0.03388146529055932, -0.022263972688706515, -0.0005508282949567511, -0.010135858167098551, 0.005032185930523078, -0.006112816547325758, 0.016963605038692042, 0.012665946458195378, 0.013092455673791265, 0.012165489519351242, -0.015489046684045353, 0.0022506787064377294, 0.005160328223763557, 0.030703576275915388, 0.004449086914421883, 0.0375437571571175, -0.005738073081312574, -0.014394592762503449, -0.006335751247733993, 0.010751501805114808, 0.016083205439451624, 8.920479280694802e-05, 0.017900235166682186, 0.03711446023705977, -0.02203457356918156, 0.011100592899929856, 0.0059171481873004, 0.0036499215834137535, -0.005238593184454862, 0.009343177695856261, 0.015367062883781216, 0.002433780381605538, 0.013867359137905403, -0.005906157650468297, 0.009759503804841937, 0.008805010545611593, 0.028847602862964956, 0.032095453036138505, -0.002124115804469262, 0.015548650504041766, -0.010514119140338011, -0.03356616865984698, 0.012118739811569499, 0.05234347846392501, 0.0041569704507711785, 0.017144026638496658, 0.018575482457640145, 0.028590381822529515, -0.0033127466091810126, -0.02154788000729667, -0.00031240067084734117, -0.028532108047809864, 0.0021087011892193795, 0.0018285567709136529, 0.007803586949004158, 0.025728437016608048, -0.005393537116968344, -0.015829859762897143, 0.008858923915081427, 0.02036361597203795, 0.0236029685426438, -0.005898945882782173, -0.001485732983280654, 0.051064487238249835, 0.004938322542920867, 0.009895991242467967, -0.02920102728217119, 0.00476577699649147, -0.0358096407391493, 0.010946972841131676, -0.013707703884259367, 0.00023823394316636317, -0.004017990189389072, 0.010012685135254478, 0.019651621737459816, 0.008398630395698103, 0.018155866016446774, 0.0324057075398646, 0.028426918867484222, 0.05086715011341887, 0.00594914712344712, 0.01959665713080527, 0.027541284011116315, 0.03702835493701593, 0.005195528473804194], [-0.06780146326771504, 0.11414390611486384, 0.025269473471004437, -0.17949150128823158, 0.2294075030822007, 0.034803835864302836, -0.0668007645390132, 0.07963676252258176, 0.025829412507563886, 0.032207093725710345, 0.05990816923410965, 0.04577233089547541, -0.05239332416027659, -0.10149505433411818, 0.04353599706326089, 0.11085327726878837, 0.019655108146272946, 0.10156810375144218, 0.07550975894695981, 0.13005417896926985, 0.08381484614241967, 0.09843961743980889, -0.08914005744539645, 0.10871694409377054, 0.1909585303983819, 0.10008060197424003, 0.011153884318532908, 0.06944764398905813, 0.03574857302753896, -0.05257854527297862, -0.03229754814723154, -0.22185403233862236, 0.02246516870665097, 0.1613036233115975, 0.041973828593871144, 0.01105751775932587, -0.027532144904869393, -0.08424038285250332, 0.010294731556707527, 0.06754721213322422, 0.0020791597306109148, -0.046006404553041454, 0.01831144751768592, 0.13774660745964368, -0.002561191963257631, 0.025964382396764907, 0.02404195734645852, 0.08605358920999057, -0.06394338572993581, 0.03682129338457275, -0.031107311678577505, 0.058895162241852046, 0.058228604031326375, -0.006443953117768698, -0.011979373974718082, -0.04451601450775913, 0.04886428589617487, -0.0934990505301998, -0.0047715354667157124, 0.11874647674199404, -0.03863871254500463, -0.040916583998758846, 0.123571846201625, 0.04107331187233114, 0.0539475962265011, -0.0011222682996521146, 0.01501956453827883, 0.140063128245927, 0.300040405046343, 0.0737569980918301, -0.033278038482083716, 0.12220271824306148, 0.08591082393780232, 0.009587411023668259, 0.06944397850652248, 0.004640429371031451, 0.01302729676456355, 0.09158109817160155, -0.009374719349884163, 0.056477576101889235, -0.053616202201499034, 0.04081745126932943, -0.18937840876165718, 0.09262555596590649, -0.060401896681105384, 0.030155418107870688, -0.11281101113022486, 0.08671892794511527, 0.08826765824989698, 0.0043793116262599895, 0.0005098469170848677, 0.0071898579931157745, -0.004511045383454926, 0.03339455535002302, 0.035586032499903074, -0.048597609928804165, -0.1295822066553795, -0.08458719824859923, 0.0946375070788551, 0.07299539022422115, 0.02163318134219024, -0.013211144767058113, 0.0692522518836981, -0.009743235768442876, 0.05451598397578806, 0.00041750682473493464, 0.07589996771852918, 0.09000037407659851, -0.09747342956555603, 0.05517629414617796, 0.10326959311303115, 0.023747188261380472, 0.022113798202114277, 0.008666729797351124, 0.04351070563857661, -0.24383049122311762, -0.07578264400278205, 0.12954721140964054, 0.018918128188421826, 0.11020448433764718, 0.07236160916958842, 0.029954973238462208, 0.013297836475957815, 0.03295311396479075, 0.1114167819389702, 0.016840640071421158, 0.03943549520870139, 0.08192967670253641, 0.03371780351293733, -0.2164949475522392, -0.054880398327278666, 0.10532488014614938, 0.1276347992249169, 0.1307897194648023, 0.04471758117985631, 0.049248182062862, 0.08472091162631921, 0.09523694455094893, -0.00506472795748181, -0.006850017907570024, 0.08927972606460047, 0.008188108974706764, -0.07735272308992056, -0.01152176492349918, 0.14434498368760545, 0.049455623257049296, 0.0032917677909069455, -0.058624911404357036, 0.010600865638976815, 0.029356824045753304, 0.034366570514303564, 0.010738610216250099, 0.017234749038519338, -0.1893743673888431, -0.028668536307700297, -0.013783351268458364, 0.04153591109069583, 0.005389294630645778, 0.025887945936551884, -0.08717040858080659, -0.12401868332148398, -0.18218384833965762, 0.07324735082662993, 0.025860681434052176, 0.19104856025563724, 0.014196753829123226, -0.024060801518998656, -0.07794238374198274, 0.0690079111537647, -0.4007106873315655, 0.04383419781549825, -0.11184219979463392, -0.094334852817758, -0.007150474276716471, 0.006824746316758428, 0.09621355381628449, 0.031428505261655575, 0.12532179002134744, 0.1446329940423145, 0.05946075307225997, 0.07871279897785505, 0.12578955589295804, 0.026374358372030025, -0.4706574520777563, 0.11368182226026785, 0.012920880503989814, 0.0700874369100999, 0.042683238156399274, -0.007482888195442446, 0.10471324903899665, 0.04452485126867875, 0.0076772679112605, 0.042928899717952204, -0.0493651299026956, 0.06985757174595109, 0.06930613827729164, 0.04254000113709799, 0.005462257440965332, 0.055436676334007284, 0.00348904204282999, 0.011364762142665156, 0.0027710172189583087, -0.01939631821961149, -0.07326136082272935, -0.18657071734784328, 0.025902921269723485, -0.1765931120865358, 0.005827901469125267, 0.07198571535930763, 0.07397463035203251, -0.011440350314679819, 0.018566757947687404, -0.069273112607583, 0.05305378488478484, 0.005865716548489609, -0.3204843659607008, 0.02929633643140787, 0.07924334664499921, 0.10270571003010179, -0.18758652672913279, 0.07379622818358425, 0.0795199519094805, 0.01495735758623339, 0.030160051006664978, 0.005213990175420482, 0.11379874422030209, 0.008015208074396268, 0.0115591448367356, 0.00416326925166668, -0.028355926009878133, 0.05234011243044073, 0.033624811234237786, 0.0581671094959264, 0.08693014401176423, 0.08303271188030062, 0.08739030626679306, 0.17720079332339603, -0.2607128865517801, 0.05246637217368616, -0.0654153395803796, 0.12013544018087383, -0.007138205540234238, -0.05731658869388097, 0.03128460637976401, 0.08907896811941751, 0.10283806310290773, -0.07654302601888521, 0.01863158343956939, 0.014841085741194669, 0.19489051296529986, 0.038700089715233255, 0.07776556887825535, 0.0005021992769157866, 0.08703699909674033, 0.08937168988408192, -0.13312871307944454], [0.02800725088233193, -0.11109955833171067, 0.010764266042692355, -0.1706145098551488, -0.1277114418932677, 0.047331891725686734, 0.01280502761913922, 0.08224881881643033, 0.06652201311174355, -0.02680770327412549, 0.012573085104603851, 0.008382076090629324, -0.024319958157316926, 0.19775775053093012, 0.0649573902429883, 0.08322252209827234, -0.1053205442682655, 0.07207490247293048, 0.02188131684725569, -0.02676478170789581, 0.021275551845323346, 0.06931159321851343, 0.22419663400384884, 0.11653945679598456, 0.3773904016254844, 0.12819309340492668, 0.07784893446371836, 0.08526654985903527, 0.0025613269414465002, -0.07157045030752339, 0.07097731465643506, -0.06780578666045732, -0.017584007640880514, -0.03540890295502732, 0.11595490594467589, 0.0036437842294847296, 0.034992091062563735, 0.023432974696368087, -0.007833543931886339, 0.012317607665201149, -0.00019459092719696983, -0.09705807484515454, 0.040818869630776175, -0.029242599336481337, -0.03421834805942841, 0.01354322946849749, 0.0295474638329755, -0.004146762882583226, -0.036706886392468836, -0.029870007730865445, 0.032410373960092484, 0.05827099350354532, 0.027188908539395935, 0.007734322693061717, 0.004296988420518997, 0.029076291829948517, 0.09932214659800205, -0.012360372492145178, 0.0012060116609277779, 0.07648656645909228, 0.07022509880574365, 0.013384645910809276, 0.01342328740931836, 0.018072058785103227, 0.03970667611708439, -0.023357413556586548, 0.002827365084003262, 0.10342713861056634, 0.1278685727178455, 0.01630482602754067, 0.027121428105427725, 0.029390040927548367, 0.06974036785928724, 0.0076045537226756025, 0.029657605736918446, 0.0012840869000388618, 0.03831799235985792, -0.01201296938876942, 0.014984883257766311, 0.03664610154303145, -0.08379256506624284, 0.008639131684034199, -0.004991472379468085, 0.06195398972636818, 0.02148202341965982, -0.059417985390906244, 0.07654401042530316, 0.03975000110485483, 0.01042519591040823, -0.056375182022843306, 0.010994830174160673, 0.024980416716101225, 0.0003725777612956284, 0.04065978851740535, -0.004376035099877337, -0.035528829514361725, 0.13505636536743867, 0.017725626532417313, 0.11918440737751203, 0.011428177649334256, -0.011288113229342617, -0.02004597587350893, 0.07166785067991588, -0.15541423566422796, 0.025553339068591266, 0.014001364977892295, 0.12192567670055526, 0.10052927948656812, -0.007634177195616564, 0.023298158264323503, 0.1098108270465863, 0.030667183432111205, -0.0610834408842366, 0.00687122167856249, 0.07818526494545276, 0.30607368461231127, -0.015363976098702182, -0.09658132892684514, -0.026259274197087266, -0.003801297292288714, 0.03670043280854166, -0.020420889789081492, 0.12220987661452196, -0.007510702035817146, 0.017748619637698387, 0.03604807323942338, 0.051322341661787806, 0.04189438708410835, 0.08851079892811592, 0.0810301464279542, 0.002605890492129991, -0.004053357367864165, -0.000268189348758481, 0.011367076252915363, 0.07532521204666547, 0.030913589936089055, 0.09793873933528553, 0.06785142736388365, -0.013750083156335977, -0.04659844949083569, 0.023744599457877952, 0.02727121293195997, -0.12868345972806047, 0.13707774829857822, 0.0543199667810704, 0.024356317239114553, -0.05192953777577578, -0.051711139040024445, 0.020139337651268102, 0.012012442954258634, 0.005493239803423002, 0.011735258038363708, 0.0032024091851614936, 0.0673570378808034, -0.014372563340329329, -0.053882832341082716, 0.01970435493351553, -0.09543438932571123, -0.016981242898684475, 0.19232939032758117, 0.09319355098010298, 0.06890401955872122, 0.08754773064441275, -0.017630155792216537, 0.07861294326081703, 0.006174056703610871, -0.007654128245092343, 0.07680378203194943, -0.005859561259063678, 0.1511703972605771, 0.09763498343767865, -0.049068270858495244, -0.10602488559089454, 0.07372601213516257, 0.03181082560600583, -0.0544605273471539, -0.08082836168863543, 0.060281168083571174, -0.0021282247475677384, -0.013752844879435953, 0.03638186032705921, 0.11683076637371873, 0.00819230710109581, 0.15093390501222587, 0.10288601076296754, 0.038981850982992325, 0.08153928475572618, 0.007651388470446876, 0.03759492385630179, 0.09417437291303558, 0.012768298779643686, 0.012828192353367102, 0.01957908042118607, 0.10758924815273152, 0.04916841715161607, 0.03093271634195488, 0.01422907484041481, 0.020415042185934634, 0.0449453610615192, 0.04756062916764499, 0.03414594014183977, 0.10633193225327946, -0.03756414534912644, -0.04585310903308133, 0.04715976880678311, -0.02381436987739796, -0.02753052765998989, 0.01611601072873102, 0.014635910712666423, 0.04369276903584089, -0.0073502494726063496, 0.05833122836490967, -0.22672679861749537, 0.03939422996317441, -0.006850323790316668, -0.018188390216563315, 0.019326242143545398, 0.11044437621038602, 0.035615507698498326, 0.09380273045362487, 0.0009515208708496841, 0.02776388271544839, -0.060375354616335544, -0.01121827142414875, -0.0577700796594246, 0.12555312407480698, 0.02145698010372818, -0.0073131376395213325, 0.1549130963097645, -0.02440851936268406, 0.007616622992251357, 0.005859013234757144, -0.05837845244478421, 0.09377389845158542, -0.03029920092278697, 0.02704886448392748, -0.030276364456212672, 0.09075009458580985, -0.04292609598517512, -0.018074913467513727, -0.09024357054600793, 0.017197887205403335, 0.06903146301519689, 0.07309385525649813, 0.03958611118147369, 0.06649234573413053, 0.24474069655460534, 0.03842745309325185, 0.014752884442938659, -0.04022965747872406, 0.10854343658256733, 0.1401766120500713, 0.0007563189540009006, 0.02635386569883224, 0.012354156623907035, 0.13444878701555432], [-0.0744693716798952, 0.009248357163614442, 0.15521433390978293, -0.0850813881765211, 0.12998230944236927, -0.11975972234350855, 0.04929577226592701, 0.04642621547799435, 0.04903352852762399, 0.20513448760289557, -0.15386360118772843, 0.09685094882004867, -0.09875450668242586, -0.010531671705797765, -0.008150872521802768, 0.0864044678402013, 0.04059946937205899, 0.07591117968369286, 0.1272842305629708, 0.17781417029714405, 0.12972226316708235, 0.10209694315497785, 0.01750830815816875, 0.05070321211531563, 0.02847221088749683, 0.13465662960424446, -0.019956539067558978, 0.31520513199477085, 0.09308855796686696, -0.1332148168986951, -0.12483269623423482, 0.13866849645227197, 0.021832266049151137, 0.14965745603218525, 0.031269159288930155, -0.017114591013386433, -0.16881631480101927, 0.114824417913272, 0.14023583536393258, 0.0772460207172012, 0.15628012572378192, -0.12241395355021867, 0.07539637871389605, 0.12121164710852225, -0.13304155379580904, -0.02735707126966123, 0.0435050874867663, 0.037915926212471814, -0.04167543955687466, 0.015512285762263885, -0.08470532342462032, 0.004035009670924723, 0.07125847877772507, -0.0412887782152827, 0.014198401403494036, -0.02039307910820204, -0.12554801350740316, 0.045323831503320734, 0.09032514098428854, 0.08398259839738736, 0.0903682219786705, 0.14841555065676096, 0.06193379300087601, -0.01210003809910301, 0.07454338432488232, -0.0072758047821174805, 0.009581883800342885, 0.10469082912153313, -0.0350133871862243, 0.016710920674118536, 0.006697045119780472, 0.16650475148420413, 0.12852856100891963, 0.010186452185983467, -0.14581284400743694, 0.06344521428675565, -0.024507409708412867, 0.13065969701728736, 0.0884462045069513, 0.006992097866903279, -0.28309906006881497, -0.16830092699060992, 0.15423756884083464, 0.015105787958564352, -0.005046797641865235, 0.06864368787233281, -0.06631985059304811, 0.006789315966230584, 0.12331106903496063, -0.0522378616228786, 0.12513040126672506, 0.08290722152614118, 0.015928540910503514, 0.07713883134289283, 0.12940934691040695, -0.03545859879251896, 0.2437957193202884, -0.005235142808082039, 0.09411222147211776, 0.05285037745125464, -0.19228833343543536, 0.06385452386669821, 0.03769196499355363, 0.010096649241034632, -0.16574805121798317, -0.03987790200713023, 0.07078976258050283, -0.0710884659657762, 0.20836533433263923, -0.07762580821087493, -0.0015450848306003601, 0.08028503921871376, 0.03355023492071395, -0.06232070996661329, 0.043301458319238414, 0.35022531191594014, -0.013268048885713401, 0.09967050632572548, -0.08011329006828471, 0.15699419251799482, 0.10807952263988248, -0.09148536342900522, -0.0777077482242237, -0.20622862665846217, 0.07174940671180811, -0.11750841343102601, -0.10422748412988324, 0.003917561001888018, 0.06845389557631651, 0.1324393567972929, -0.0013804908342973429, 0.14844315036610836, 0.13822841331290703, 0.10855681090017208, -0.012888959514709138, -0.052396867700151624, 0.11680050070722182, 0.03374324009281075, -0.04998600549848088, -0.06624727214962732, -0.18082439636361985, -0.01285140068718574, -0.072782789509244, 0.17703207206388782, -0.11544806547635977, -0.07721416228368301, -0.012626270711292801, 0.1738094382460613, 0.0472130573268103, 0.09860268507297121, 0.03341467102883199, 0.052012954771885, 0.02352676403231301, 0.04939256943929471, 0.025385745286778113, -0.17213822376752422, 0.04249258416803353, -0.07459884804614336, -0.1963244582050658, -0.0016454650863000672, 0.12941667113229763, 0.20095382268325346, 0.12670182737086694, 0.18470001599606706, -0.1566871299982569, 0.009236795728809125, -0.16135108367016104, -0.11652226369250786, 0.013320827819283992, 0.02545780845646444, 0.0571702624684181, -0.020092721684552867, -0.4923648735716337, 0.04378285087114989, -0.15883094824404234, 0.2168843418034701, -0.08430778916042982, -0.17127513129991298, 0.14265071986421168, 0.025924203240948792, -0.21859709519908146, -0.13961890511062236, 0.03626254277887807, 0.4576915622733694, 0.0781107635803696, -0.09558597170340646, 0.02805930026695581, 0.04900264740780325, 0.02912931541436591, -0.010725428946947198, 0.06305211030740841, 0.10337283490005966, -0.04076316711492959, 0.14998924967494992, 0.04977533332522176, -0.11146134304453442, 0.02181420480026502, 0.010285456802540036, 0.10032408457015322, -0.026714527409795335, 0.09456677485005874, 0.021275163961136916, 0.06840282523378663, 0.08446658474841533, 0.061803903959263114, -0.03533836285617379, -0.020668919829446738, 0.11999579573078364, 0.042054570054688406, -0.1151555572672684, 0.04601557562184056, -0.10479767285457313, -0.27993222077785085, -0.10741131697763956, -0.25952945277282113, 0.035147055685696364, -0.09226249900720154, 0.10359682747425636, 0.11064063997415666, 0.1017452862431803, -0.055544639471837236, -0.1819087255193346, -0.29862678573312484, 0.049447508855692136, 0.018409314159574582, 0.14336390712173314, 0.05572677140625599, 0.058959605861694075, 0.19540772692752334, 0.08906634834362968, -0.10898337393637234, -0.16527073229474015, 0.18029987806152886, 0.0033884475675823667, 0.046224982236002035, 0.12291687946631694, 0.12808174023998617, 0.0017204157053753943, 0.12008577979539785, -0.2975318485845612, 0.08117433647579227, -0.12394843216019255, 0.09123286864869892, -0.2553281062891127, 0.09866868415266984, 0.12226392626603894, 0.1532455627602923, 0.04471028720135338, -0.23037332693203044, 0.03229810864525291, -0.1872566367767141, -0.08607066032197531, -0.16845275761149786, 0.14746857886460552, 0.036643769388815466, 0.09238112336715912], [-0.261197869494796, 0.17849863301160385, 0.01997592363498968, 0.2851522682453001, 0.24528864458521757, -0.18407999771697012, -0.24961604685890107, -0.1015843884506355, -0.1816268888019645, 0.04470093950749044, 0.0154744213250985, -0.05715963618010633, -0.31703225250949674, 0.20557486832943841, 0.02406810904547231, -0.14958613547673902, 0.1700959287336893, -0.06408861493109559, -0.006524874111209533, 0.17016318816917234, 0.09153438455270063, -0.0893808775708858, -0.07816459726529246, -0.11785778904447929, -0.8983713149272261, -0.07607895173660272, -0.04724997108529431, 0.030713924300498244, -0.014778696761866546, -0.31314230456122333, 0.017455370196460568, -0.2711716054265487, -0.030400876921958902, -0.267239958790649, 0.08879651865911369, -0.0703145810788679, -0.23626154919801362, -0.2183981416763539, -0.1518390466044822, 0.011538728290027701, -0.18946817472184965, -0.03364688570783059, -0.06129513859467813, 0.13511660299659953, -0.26326264124686316, -0.050866303581791665, -0.12869205606768266, -0.15133208923749233, -0.1357159043909652, -0.05133595274243209, -0.3475655742805203, -0.17114697590191455, 0.012588741827782782, -0.04776017246780716, -0.006725875478636563, -0.2889039236900707, -0.09431380318843116, -0.3152986091244022, -0.12601875739685744, -0.08917338553818413, -0.11401484460150864, -0.12729538017730996, -0.04707780789050401, -0.01817597148539385, -0.0007233173970099103, 0.005524143826643257, -0.05260164584202111, -0.08449266340757462, -0.7587124657126623, -0.1940946333758331, -0.1793979114203626, -0.006653992884441788, -0.2059894914710651, -0.030209725281744614, 0.0427196448768075, -0.007879986485607686, -0.06690227852609021, 0.07108998981617634, -0.15352352079508202, 0.0451494978182392, -0.06265535812876509, -0.3139584655443062, -0.680714354353886, -0.1157383839052243, -0.05264216614415428, 0.0476672756313788, -0.33794459103800284, -0.005457218585587273, 0.033946939811279844, -0.13946869564558043, -0.21043430715057312, -0.09676521956407631, -0.038170666754649786, -0.148742754168701, 0.03210353561959746, -0.1495844314787335, 0.3517995607636371, -0.18263548885567055, 0.0783585333224324, 0.05415893774413873, 0.025277739288022242, 0.0019889448757544554, -0.09632770135008603, 0.15458200441264883, 0.0476913759848938, 0.041686079612152316, -0.3166797315973897, -0.31606197480041265, -0.44521360313524355, 0.015209748086256133, -0.057993111735058056, -0.19468662331059497, 0.11158849777123944, -0.029665887994169672, 0.035020929340436206, -0.8589075494548153, -0.041225590138434264, 0.255063825742717, 0.0428102566921544, 0.03544187849798213, 0.04777406828963963, 0.01023267610588726, -0.18180952092867225, -0.00071062089883221, -0.27599047722354153, 0.03910187261467904, 0.12653031888487262, 0.13977143822135632, -0.004546397816512398, -0.0685838778164687, -0.42499943153843095, 0.04892665380310771, 0.04120929004193344, -0.10190856753057742, 0.011774004892359077, -0.24403006227131988, 0.06090914760060867, -0.10580870267775976, 0.08227134384543784, -0.03059806715243217, 0.08184228558296888, 0.008060851109429943, 0.1250983010351169, -0.20529490733592298, -0.43334799253700873, -0.26675842319274107, 0.10869140289091472, -0.3992449648457982, 0.10253084041256617, 0.04159395706766102, 0.0021363509669582183, -0.19336311664892983, -0.051022925508866626, -0.21926102299005337, -0.05199990046864107, -0.3645742663898399, -0.01186828537533167, -0.03180251260226063, 0.022783737618630548, 0.15422755934124355, -0.36766494681311823, -0.22801260798326234, -0.08340863794477174, 0.07996281842425089, -0.01528641925552381, -0.03914857053405362, -0.24510549482638147, 0.03429676259258929, -0.11794415950580002, 0.2036919056357889, -0.1289702103471174, -0.1278404297894538, -0.2094680059149403, -0.03615070583170476, -0.22587165217123006, 0.2985350864419717, -0.15670929667107217, -0.01264200806140403, 0.05530988900706488, -0.11399680141221359, -0.3536883475754918, -0.5290936817558776, -0.01726296201647009, 0.5712907330129443, -0.08866993413766071, 0.05905131607554751, -0.13788452211690622, 0.09751847953259431, 0.047542710303286474, -0.08375745630314553, 0.06510532987373126, -0.06369029220022543, 0.05093666540671796, -1.2955707653993198, -0.03311880709580439, -0.211715475114712, -0.022109245457974092, -0.020882738521738258, -0.03744484550144562, -0.12598766194450212, -0.014928132526681067, -0.05896693003710882, -0.017159230694311363, -0.13479338944187985, -0.3193968783493786, -0.10470822754530039, -0.09829366728744403, -0.010797173557799801, 0.037879807111170734, -0.4508933973649215, -0.009250826535033903, -0.20194278248155376, -0.32497270820835816, 0.05335390666139125, 0.004830517083503139, 0.0188979069300811, 0.061122486008598396, 0.002938815561173266, -0.02630397067236369, 0.059443001739621075, -0.12914970121523628, 0.0988088154953056, -0.2098905229034148, -0.20432858127969147, 0.024086944232420672, -0.1135700510958312, 0.018028991248587332, 0.006553140249812299, -0.1349470166563779, 0.08861940419246282, 0.07147211570860437, 0.14651372466457796, 0.12183540593947922, -0.0748768799155355, -0.12826090820638036, -0.02804014192356107, 0.16651969993166624, -0.4759641617172036, 0.11087493434646804, -0.18632266074092624, 0.1979139748171187, -0.4107954649867861, -0.2761451086671774, -0.6233464052808751, -0.010944207925924002, -0.180106655006597, -0.012711912464740589, -0.006756230469963178, 0.028361363233997572, -0.257141279605286, -0.1684532644703173, -0.07404115115397282, -0.1990981197388949, -0.03873111257756741, 0.07759289596921959, 0.09184347067740006], [-0.00434209235485489, 0.021418911806316755, 0.05814082566272047, 0.013788399723219276, 0.061730536760083325, -0.018103329937617586, -0.0009703459225811252, 0.015513247390400798, 0.030199532086664885, 0.04114800888017884, -0.009805950459321401, 0.002336018869493945, -0.0016101847604355873, -0.06340748581919949, 0.03921296631189863, 0.017767588716821554, -0.030723462999391146, 0.030704449173805933, -0.004303303993480887, 0.05223052965477041, -0.023874757363017647, 0.05024058849797807, 0.0006063222767466015, 0.03642376790196193, -0.08065067760001433, 0.028295223999329225, 0.06433684448407302, 0.07881693814001355, 0.02850776393186066, 0.002436769810275819, 0.07474129627361634, 0.02617721705146394, 0.017383992631366075, 0.0819330048503931, 0.07190177120595677, 0.045102514067621356, -0.0009924605229491062, -0.02454260520381051, 0.018213534422071163, 0.0023487061939005, 0.029786088490289624, -0.05920797113081077, -0.008784210015772644, 0.010383357476050925, 0.003973799909849803, 0.045867550594466774, 0.060680282863832063, 0.026088781822221664, 0.013427167147541563, 0.015951714109962663, 0.027764973038776362, 0.03713637226947589, -0.000629513816438712, 0.002393684342576256, 0.018863699461076043, -0.0724710576073487, 0.01566558314803158, -0.017832643184948708, 0.018691429463733016, 0.025545238501191652, 0.0704561710659051, 0.020500810589129916, 0.0648848003382259, 0.039402961573888375, 0.009176105611998797, -0.0008846503218329729, 0.024521950681174548, 0.03870891725683504, 0.08277902858958834, 0.0029439654798660573, -0.07361086264839924, 0.05219286358814949, 0.030083450853043897, -0.0008266187117834054, 0.0077095835846353565, -0.009559102277124466, 0.014991805224912204, 0.04173786223298805, -0.016731709576086818, -0.0006662533991443836, -0.26902479043933025, -0.03375980284487735, 0.027792836335470958, 0.006487483529884036, -0.004000462889964198, -0.005738677913480407, 0.005775057752345903, 0.00984688012379895, 0.04006948830210052, 0.020490326333272205, 0.026318383784715838, -0.0034685546236698853, 0.03586895109943484, 0.022637432388958833, 0.02996335447002476, 0.0027102838597212187, -0.023902857249968837, -0.016693963151102206, 0.01050475202458724, 0.0004258989171103774, 0.01376053962529368, 0.019772093847436657, 0.015375348465093789, 0.011743145756175431, 0.008969903597712488, 0.03554702117728666, 0.023566720886449066, 0.0712360937794827, 0.06459669693763401, 0.03709466034293968, 0.03399942352051651, 0.02905513328082543, 0.01507756680253195, 0.038336280900037115, -0.007948728487340453, 0.03131199536035684, 0.00036353081371595967, 0.016009749234338018, -0.01110173580976406, 0.04122175480329264, 0.02885061311549787, -0.003694458437362818, 0.01623865451926357, 0.008509261280292436, 0.05733943981583873, 0.007460139246314671, 0.045851596526502524, -0.00041492669338378694, 0.03764741131290362, 0.07160659820862963, 0.054013667131151806, 0.011916092960536404, -0.00027146457522885675, 0.011209493734059082, 0.052503321195918606, 0.020129175361392807, 0.03599910416285584, -0.0033099334071295602, 0.04327127505629647, 0.016157743391054347, -0.004464431855036575, 0.007520764935540611, -0.03146526166007342, 0.0362028939536174, -0.038460205799036015, -0.027666731432632485, -0.015113909251947177, 0.06025822809198823, 0.02063763356230226, 0.03681057046026209, 0.04004751518077716, 0.054005691130418074, 0.013244770536747583, 0.04486192532518116, 0.04286614812486354, -0.0057748304329206515, -0.005975202707916553, -0.029537275335374428, -0.007725352884434801, -0.045935069060352954, 0.05389220463238387, 0.14563632244063934, 0.02135735129702196, 0.02607762746299739, 0.01234554764392579, 0.019548629079526876, -0.01813472091913497, 0.03276350742631464, 0.015694646175010124, 0.002084443237115809, -0.0014253615938409595, 0.01583941744577638, -0.10645356603246783, 0.07229778576455496, -0.020568299246731446, 0.03127244765509045, -0.0015480328296080235, 0.03241366744540965, 0.011786499706987006, 0.026359215069040123, -0.02581935940890642, -0.024101663459062155, 0.022612658331416163, 0.10795210252616871, 0.021690117999075154, 0.010763977536335933, 0.007316995420972752, 0.03323958144209417, -0.0012128853011947004, 0.04730318478803431, 0.0007863942561108545, 0.03914993168827181, 0.010183335485147818, -0.06819434424414347, -0.0007619985016019111, -0.021505733768192682, 0.020506132197348703, -0.0021047527980100054, -0.02781748888362035, 0.0398893694472927, -0.019523659834061027, 0.08035220897740247, 0.054045253687791464, -0.045308817918409225, -0.012308968215658782, -0.029854663846174204, 0.04775293120692148, -0.01853544375693189, -0.004963381937773862, -0.03444444679592448, 0.008538902992375802, 0.0035010261654287436, -0.021297001256256918, 0.006380098420932256, 0.0007066409933174918, 0.08429362739495667, -0.005653670608385763, 0.04121469544789051, 0.022856412847834698, 0.05608262875675953, -0.0005860018251589993, -0.00922754286724358, -0.05622774326094275, 0.022828436694360167, 0.0066090785454814786, 0.020818243118405976, 0.01913632990331327, 0.02007346908591489, 0.054478494849139074, -0.008747294932884644, -0.0009711799806238238, 0.047045262042489565, 0.042095739561599094, 0.026610690651178052, 0.0624167686970654, 0.005557821340425653, 0.031613651192310584, 0.07347728091272879, 0.03363383157435261, -0.054022378196149065, 0.05677968851385567, -0.057670211254948374, 0.03488709201718859, -0.08140620180449211, -0.00044885147829610737, 0.05756736734851247, 0.10773485472727426, -0.0017074955424361473, -0.00953547937820947, 0.10663099182584544, 0.04423043663392328, 0.03107610327644466, -0.008000973498566755, 0.021665406568047545, -0.012868498107534843, 0.12351830779161353], [0.06502888752932644, 0.02443182512555656, 0.02710294216090935, 0.23513145550274855, 0.0011072110305002751, 0.009213637305528157, -0.1620530041621582, 0.032843059435206, -0.06848105982476022, -0.04322256966249731, 0.016521866993676672, -0.06591268149625393, 0.008410310819593966, 0.07309491722513572, 0.024538362900053685, 0.061213261277930205, -0.1236368689831087, 0.004150374806505061, -0.07009208383185067, 0.15169453318979179, -0.13074330409819931, -0.08212224699281885, 0.11048951899125782, 0.011229419247754639, -0.06860113920982336, 0.01904852699930063, 0.032541729564564935, 0.0009658472931273748, -0.027322081987770454, 0.02566617048805003, 0.008432551872341107, -0.024293812639450286, 0.0009236883071586579, 0.051458185493398326, 0.10657917649398992, 0.013047650315450075, 0.04054682099074278, -0.021500690861027412, 0.026696164385058688, -0.06902494929348467, 0.08898565077607433, -0.04365438182774046, -0.07141931010684434, 0.21288605743754782, 0.015080379598660088, 0.02655740116087618, 0.030969559976827217, -0.009221978983446937, -0.10707443107986994, -0.019008663398973457, 0.07468390050739852, -0.015116559911922109, -0.054992779265904124, -0.07645549070565828, -0.0002648511016220208, -0.08493809048225837, 0.031068963821046316, -0.10654185661897356, 0.10964608053687395, 0.002893033009047575, 0.04952604098058413, -0.0740253168200093, -0.011445497133367533, 0.007180057035415405, -0.04882638601356522, 0.008506268536746126, -0.01648489798525557, 0.039624423175179516, -0.03854504335327205, 0.04421527300094905, -0.05281113226514624, -0.07333903487571966, 0.04677803163239345, -0.01126667092883698, 0.056280122005533936, -0.032460713986549504, -0.0010872168810297247, -0.03432909180488139, 0.02994503841039563, -4.080528408718402e-05, -0.08264926906769646, 0.04728091359410995, -0.1591306689583663, -0.07260732639055169, -0.015833997321864312, 0.0029442297844118003, -0.13497048223982364, -0.06255149159670259, -0.06170803732141343, 0.006558489282979441, 0.021509229114206878, -0.023255823662785776, -0.022831135415279008, 0.11560242198930216, -0.11865947594639771, 0.03508517482862167, 0.18240791186851785, -0.07315825785297303, 0.011824800954651115, -0.08068273021854318, -0.00660416721622157, 0.009218712887435017, -0.03783864240393319, -0.08466113630175783, 0.05839157025202187, 0.013527810701479043, -0.031136690418938334, 0.01018768277869888, 0.017625695015639615, 0.021018371467811183, 0.025876778685713787, -0.03160907723877054, -0.14233463582972652, 0.04346558912393405, 9.621045226407466e-06, -0.006836328433224773, -0.09701202997040886, 0.022036546834051908, -0.021324138142093774, -0.14863441470951566, -0.07215126222099522, -0.04030414181737898, 0.057010666641844024, -0.018657218742490017, 5.934949352610813e-05, -0.02058217045798557, -0.006922922566718054, -0.02995261559766663, -0.024062608412792518, 0.05863026027076525, 0.050799220227387296, -0.09101219920459698, -0.08435597152755739, -0.10538350705589371, -0.003921841990372189, -0.05914650777017714, 0.05675125266137662, -0.07335332489398946, -0.017987566950373738, 0.02448340064042009, 0.01181296993159816, -0.021705215223890368, 0.017090061316897366, 0.08758334339740313, 0.0457132659106814, -0.009841737014171414, -0.07825634114170665, 0.15678828336831704, -0.03864803775486682, -0.061190546981006365, -0.017562605953902497, -0.09564874735939911, -0.01869642972257585, 0.027338977819015658, -0.044884375936817315, 0.010710075107820067, -0.028051239888282457, -0.05283147228908183, -0.016670662159446507, 0.06913900425329363, -0.14160620285309117, -0.29615134459043846, -0.043301286754259406, 0.12937045357745447, 0.006313552112848769, -0.012222085776623875, -0.05959734097120264, 0.1582315079924622, -0.01745503617552917, 0.23887837177153062, -0.019826095680842405, -0.06373709173969482, 0.019370803397881418, 0.011727747438491695, -0.003691162887887932, 0.1583930167681151, 0.04786660825317565, 0.023338215796396587, -0.10733066426425791, -0.021091822713582384, 0.020886258639935533, 0.05501462667482447, -0.023235697565641505, 0.18097523268369542, 0.03306884846072198, 0.004610949775440067, -0.035568268374395244, -0.04782720031281179, -0.08184568442432799, -0.012417310752606183, -0.10691096072590892, -0.025608454999192266, -0.049164003604230504, 0.14068907789659396, -0.07148748885523527, 0.0399965403390493, -0.03752342338009425, -0.01640840044063207, -0.09839563620870953, 0.07158543327060334, -0.0956381688682865, 0.005227864195323627, 0.03516178987192014, 0.08019648535378955, -0.03176413465798148, 0.05607267403738162, 0.11922163039182866, -0.0961235934723824, -0.0920532485297625, 0.11460033873443896, -0.009240560665351626, 0.029248579216697403, 0.06949197306589742, -0.023622902970046426, -0.004879294748192298, -0.1780016235299192, -0.025344246783458552, -0.0898297048973208, -0.07527038101392684, 0.08262357705051127, 0.012569359090580805, -0.041515280165386595, 0.02002631382133806, 0.0010161500605705036, 0.00615686191123212, -0.05581977151129214, -0.06497533072455978, 0.01948577375930926, 0.08118316706156009, 0.018642250759428693, 0.013002957390392991, -0.022106044745026854, -0.1243288357643902, -0.039871021635209614, 0.11562265276092516, -0.08807398372350109, -0.09374425985510479, -0.189943571488692, -0.10460497461652611, 0.05235293213872132, 0.051917545315860736, 0.1326488275832479, 0.10514648751738993, 0.14147289180506487, -0.07907817585242884, -0.00802613411425183, -0.2812022365149162, 0.016455752759995113, -0.025412386836225178, 0.00464641125977196, -0.17434332016857748, 0.08120391834437823, -0.0052156626588820134, 0.01113394502063917, -0.11009171594396476, 0.05284779972239853], [-0.015845720794297833, 0.015744808235731107, 0.01047215239823681, 0.07129242456846895, 0.017028541360009294, 0.0028068411544490764, 0.014779934493296284, -0.023591379654923257, -0.0036323591205038126, 0.01869336578752348, 0.004836551966566448, 0.0027271179065801497, -0.04047250176474993, 0.0013345025484522485, -7.798009107658907e-05, -0.012022162038383891, -0.010902843525640759, 0.021204859078428645, 0.010819894284144435, 0.02163429677400491, 0.04459102786817298, 0.0027315447663238458, -0.009671320669379136, -0.02590387744608271, -0.04221635067592748, -0.026136803643469833, -0.002813046292182727, 0.0020153804485651813, 0.0014262952605688568, -0.03516487287901414, -0.018986998403595957, 0.017053997271502395, -0.009570192899140469, -0.02244065324810304, -0.029150948331979214, -0.029305691293875093, 0.008900114175065223, 0.04401220221457503, 0.0316839472597305, 0.009013535882662209, 0.04007833184785043, 0.010958141364985009, -0.017119069421264684, 0.01340357572167508, -0.03384285553338467, -0.02892049645185518, 0.005040928946333583, 0.030746451249094697, 0.03000237977207295, -0.006794018908454799, -0.01049913565337208, 0.01259115003845527, 0.0072188972729188726, 0.0056909724681297085, -0.004013190290822383, -0.00432233917858826, -0.027205889329972675, 0.019889270903803945, 0.02499102759071241, -0.02440956137951822, -0.016402961087107586, 0.013172521230335044, 0.005436673966992769, -0.006966740584686455, 0.019323412982511855, -0.0008967280218472675, 0.0014880695104485646, -0.024180992458751056, 0.012452269205552794, 0.02064903521244162, -0.007583528885409391, 0.0277262960015842, -0.022717885639896514, 0.0014976264355065017, -0.025157243430982676, 0.007727607592574757, -0.0022722107308443098, 0.018059000328884713, 0.0007824874953601236, -0.0005536532087861827, -0.05372781021224784, -0.03080198743598013, 0.016728573909380647, 0.016784999933562004, -0.0031459614664014, 0.001960018389823112, -0.04495954358731796, 0.0024961837552680524, 0.008172118489325274, -0.029071902017491224, 0.04008384383788336, 0.012462480580547323, -0.009468605146510219, 0.03157905963168165, 0.016410065264611043, -0.028204524275972753, -0.013009649142349382, 0.01276174067506373, -0.012297001896128344, 0.021063363401156818, -0.051114775297634994, -0.007585850212819618, -0.010831955647256914, -0.013450763561596298, -0.02266883719832125, -0.0144245870856913, -0.01081693875756656, -0.013240726064523433, -0.023613476186618614, -0.012391572816765188, -0.010743362638030964, -0.0014167508702199615, -0.008077250295810101, -0.01127706941296643, 8.314327516479713e-05, -0.13166517793588114, -0.006747091577236595, 0.014393374405638537, 0.0017957988126861173, 0.03581692618462928, -0.0010112758342824388, -0.01957102941372746, -0.006025495477458182, -0.046429012024062695, 0.021115422631199962, -0.031385336221154934, 0.007832681221998561, 0.013084388371553861, 0.0008859628387803097, -0.03621433424656805, 0.007979318911246905, 0.018618889732146524, -0.0015013288061049442, -0.02206425252468256, -0.0037641770296515196, -0.001397083408425576, -0.00923113199960971, 0.01904008767695752, -0.022931977035499037, -0.03751119870852986, -0.026177810704134986, 0.0026157571575938393, 0.007335729401498163, -0.06281232591049637, 0.004056306859108247, -0.0019650393839187367, -0.01418351850946544, -0.17076551562872086, 0.029652318554644588, 0.01978703210366445, -0.009672846673416951, -0.016649802427808676, -0.007778159580804947, 0.02729567298631055, 0.005870579994582342, -0.05162869561859106, -0.0019897951549923748, -0.017677235943783697, -0.0499389825964925, 0.018744833407701993, -0.008967334101778406, -0.0014757324473383359, 0.0024273049826211233, 0.02578500256160478, -0.020208634630450185, 0.009769781745842284, -0.021404085689945444, -0.004146581090636855, 0.018555979487329583, 0.026990900480991623, -0.008887194554926167, 0.02745322701777276, 0.04432910261237394, -0.019347909056680736, -0.008222264044691513, -0.004242266030218044, -0.06180550797602598, -0.007604830973931408, 0.0022558341696357832, 0.027327589362120985, 0.012688988608759815, 0.017163451933817183, -0.00286510952275796, -0.24596015492049378, -0.020344920790075487, -0.026464518725163685, -0.02923628747847764, 0.01331978347522012, 0.011648514007174548, -0.00018762857288686242, 0.030059354502090175, 0.011217112005309412, 0.0069028687413155, -0.09850970117236808, 0.0037042018667752144, -0.004501578180411068, 0.0032748704959338457, -0.004812079535252672, -0.04182156144044315, -0.031829555707444224, 0.045385819269885296, -0.008108243300018088, 0.0005191596440239981, 0.0178201367329543, 0.04065150009006954, 0.02540799744515213, 0.04616386007751495, -0.0049776219687723295, 0.010960970897706269, -0.00022036551651492494, 0.012795990770546734, -0.01749540782887894, -0.0452366109709011, -0.02315064037721387, -0.07190690843014451, -0.010276139986861934, -0.008643359510775713, -0.005932601346507844, 0.007105230490562917, -0.03748206348021749, -0.0038830375102836623, -0.03847884713004367, 0.03644786285503499, 0.011295459627365022, 0.0012052476698926225, -0.01286739741999942, 0.006744201154832153, 0.00532476188478192, -0.04452275144888405, 0.004232718666483201, -0.01669882950918827, -0.04962275723996038, 0.025486793983530303, 0.01456301576681095, -0.022628657964481356, -0.015482418391967354, 0.022075193227746953, 0.000830737567082734, 0.0305450098169589, 0.009062313463666887, 0.01493374732770764, -0.014948573065686314, -0.004572901456621699, -0.028241526290976277, -0.014030808916936663, 0.010166493978191573, 0.007873203443028665, -0.014048770354138831, -0.05626482009365833, 0.03138005362548553, -0.029942558014720188, -0.07694811670845515, -0.02112149500236888, 0.003611382095531614, 0.007933999321358126, -0.033570290591608945], [0.032625921148438666, 0.012181652107661799, -0.03511835230671119, 0.35991096060054867, -0.06951723264959526, 0.024932031737790464, -0.018631417371326228, -0.022922738064153618, 0.01064887370567105, 0.022693882475755534, 0.02845983502797395, 0.04793738066762385, 0.027453038746652014, 0.05311891463652299, 0.028237139701141105, -0.028736780366657555, 0.06742144446281635, 0.03670728299046229, 0.02463467503737722, 0.07746972055934032, 0.09777567978667485, -0.011873172301889242, 0.02843411345874504, -0.04693751410452043, -0.13049128971863008, -0.029668320909111343, 0.01980131239457711, -0.07224051520712096, 0.01736067080379314, 0.021494743906457513, 0.032203132701811805, 0.04667349011475173, 0.04367974289027132, 0.10792872886388409, 0.026285248010930806, 1.1428324841052467e-05, 0.07975782415262575, 0.03380143883199411, -0.05706996894810861, 0.04208200962306423, -0.07685186367933242, 0.14246258425820618, 0.060305795735012865, -0.014712924693266308, 0.02682952190253695, -0.007487283824835099, 0.02738785819489645, 0.029429741994858576, 0.013731751094445967, 0.05949712982497917, 0.027871055742077308, 0.04192153501883234, 0.027079860852074353, 0.01160787313909468, 0.020417172721505228, -0.010263729745975357, 0.02209876364292984, -0.035367483863676795, 0.04247290217936691, -0.0030751559463315964, 0.003886269285164925, 0.0034752364396878808, 0.057379319537245614, 0.01765537352751502, 0.028517981721653755, -0.014722369269364401, 0.03434893183342976, -0.015188989615249695, 0.0710577572697849, -0.012799044119748016, 0.018628323309822285, 0.058583107127823345, 0.006308082129311556, 0.028793958260512714, 0.021972447733524796, -0.024503242041250355, 0.03152188818534843, -0.00016330511923207133, 0.03049555848150106, 0.020632434447774642, -0.07441300265347368, 0.05768475558558681, -0.06891003895352078, 0.06273272356382782, 0.03789094690488191, -0.015002460127028092, 0.04517851441921873, 0.029131382367965846, 0.03650129837481372, 0.017206841073206247, -0.09313053209322843, 0.07855550367539256, 0.0173362305036783, -0.033638669557139726, 0.03905678548672737, 0.027731622611116762, -0.002869267354366923, -0.0036820688262885156, 0.017495116459463132, 0.04067404723288566, 0.031280981743806655, 0.03542587756231722, 0.05360388323756972, 0.08980343198938773, 0.047224573377280046, 0.020890991175263208, -0.06271746909539301, 0.050087119857955546, 0.010109815455591488, 0.00011965473919548018, 0.014205948343975443, 0.035549575218498025, -0.00188477171079992, 0.013979991440011413, 0.023099194463642794, 0.08132879804881989, -0.016982955601800853, -0.041961845509906635, 0.004830444427799974, 0.046996308494320994, 0.038308413427505496, 0.0017196934317422335, -0.0003284988319877171, 0.015773764720534614, 0.03480966579369046, 0.008596544959910952, 0.03428624752565717, 0.059422417564848666, 0.012666875292378046, -0.03676612432404247, 0.03016479592792497, 0.024507335546191184, 0.015145064276082568, 0.014722757859365302, 0.019028519049589313, 0.028603720132824462, -0.012541450919858541, 0.07923817842470585, -0.00021703744552022247, -0.00822601383954367, 0.04208506598774308, 0.02101953172865466, 0.10880842631641678, 0.02162504517248385, 0.05516262715131698, 0.048659459885690766, 0.0241839120552403, -0.19547059629732427, 0.01607894232833933, -0.003936983958443841, 0.010853054173073282, -0.06944037795931715, 0.026509601952507456, 0.04000916220811961, -0.009545532364169163, 0.05159431803656234, 0.040483130783786805, 0.13082906214167522, 0.011060600533957849, 0.19369026427262878, -0.021337970606369216, -0.06788501477267744, -0.029797556321376904, -0.00044037132382513484, 0.07270093913467143, 0.041053174652687645, 0.04475377395064711, 0.014420713519363823, 0.021054306530037356, -0.05077349822476262, 0.023968385096632, 0.015181776013972869, 0.019550155924389585, -0.0185085070161827, 0.04868778291850343, -0.07358116570324169, -0.027605905132847608, 0.09289092233023247, 0.01319267856793504, 0.05912060778978278, 0.053952346216211915, -0.03938427310106318, 0.0383029668545871, -0.2447675221059829, -0.008435761082245355, 0.005167190119747421, 0.05453541852428645, 0.049343909850347735, 0.006193345389317104, 0.04172929039921742, 0.03264628177477383, -0.001604413501186535, 0.0368695214099246, 0.23345109862543428, 0.018925885346621405, 0.036647486113201906, 0.03845597740934616, 0.013808775244241449, -0.0034852136854631286, 0.04683801957810174, 0.15365879561968288, 0.019750099968386753, -0.0022870478548327423, 0.05235947124391339, 0.05781632956034328, -0.0063807238379693645, 0.04130739503210235, -0.004567188107509936, 0.011789320787901746, 0.054569127334195354, 0.021380274142249266, 0.042734429880822475, 0.07370346494507345, 0.022946883053499033, 0.0304843241498298, -0.029563001383891205, 0.04793695353750255, 0.004160418217704079, 0.018536218389501022, -0.00121650097283312, 0.07352477333336892, 0.0170894734844744, -0.017760357050576558, 0.03794758658510352, 0.0005533406835948195, -0.03280270476119317, 0.009039839283473695, -0.008195651016142681, 0.11592585075660465, -0.017317021319246288, 0.039623813569491885, 0.03570074580606958, 0.06917065522449356, 0.03130101041182865, 0.018773800508078857, 0.007615982375238584, 0.012705330889573374, 4.557732116109746e-05, 0.03779667053740972, 0.07141768384159652, -0.03710795304586027, -0.003071844037169518, -0.02540052565773329, 0.17186316275021704, 0.018354045766795262, -0.0059208098840900485, 0.21229653430641882, 0.04051456825708872, 0.02235833108791018, 0.01304377830901578, 0.060066979139647196, 0.04720672342255383, 0.008033139174201382, 0.003792017044750864, 0.031761218460149565, 0.063299397160478], [-0.01928348429355664, 0.04524266487411775, 0.018736832294340918, 0.04815119365687072, 0.04320176058168164, -0.0027831423372145477, 0.003974830898402119, -0.013893540487335635, 0.005623590056579936, 0.024973300652765356, 0.0004318011281214761, -0.0035399952526086755, -0.053911331898781875, 0.014214586068714324, 0.007860871575668687, -0.022278463301882226, -0.022810981821725803, 0.005083631726827071, 0.008526710743472533, 0.02362590041282711, 0.038288625829993796, 0.00029259492644002704, -0.019962981678434133, -0.023188921469637098, -0.056368058776223355, -0.035019603581675884, -0.003096313660260636, 0.005333221088822551, -0.0015377788102056307, -0.06146076900881418, -0.0017933036292722853, 0.028371159094540056, -0.007689872573816911, -0.008301910126294184, -0.018726067379007012, -0.01430001100461887, -0.01335635055844744, 0.01792496626894495, 0.05390677122624837, 0.0224378858867658, 0.0457705000386045, -0.02936746986798595, -0.019715072393295317, 0.012946974064144854, -0.05583097253178752, -0.005374947352653956, 0.02141750249114663, 0.02888245890479787, -0.012192672771319456, 0.0049452639622818055, -0.006544989451182374, 0.02516752613048353, 0.02131658657940553, -0.005875598471119208, 0.010971149052732982, 0.010002564006671683, -0.03309684738348284, 0.00236606790819226, 0.012953981634216408, -0.014114693517117733, -0.029672492825344107, -0.01826125059734594, 0.01346603255712149, -0.0010982036150047028, 0.009498750564274632, -0.0014902444680371704, 0.0031051527474897536, -0.012888673245658164, -0.016423041903225275, 0.02193254748168468, 0.021771474417135957, 0.005333544227596788, -0.04337160080523161, 0.004091931401589336, -0.029189999920565805, 0.01699844408191196, -0.007242199491508517, 0.014184472314968725, 0.001984835261744316, 0.017246707790264725, -0.06575228995593345, -0.023510245736937482, -0.015194497271266157, 0.010423391609150378, -0.010418786288205356, -0.0017910039838660628, -0.06262656896501716, 0.01084278650573964, -0.0034012504495564153, -0.03326147705077958, 0.04176412401250408, -0.006668654766027074, -0.001510437237066959, 0.014291213593866127, 0.018464798969482693, -0.026416309407353653, -0.003251812015926901, 0.0028889699006846015, -0.03577968197388215, 0.00536681274590264, -0.0523642934670665, 0.0030769086448990636, -0.014505739078553228, -0.02855591934318511, -0.029197103225934995, -0.034507502267326066, -0.021738557624278974, -0.03067689762188412, 0.010829102672843677, -0.007308639957051051, -0.017054251058820365, 0.010460407286819799, 0.01619411079723707, -0.01566840498582349, -0.02174529193860608, -0.1617138291469623, -0.00807763896814088, 0.024524898463527144, 0.005377818667158661, 0.014608337749721138, -0.011372500275068587, -0.008385196700940631, -0.01704161620879946, -0.03977011995160163, 0.024896184383923273, -0.03506638367012766, -0.003354848137227777, 0.025216346072362287, 0.006222025018020836, -0.03843858364351243, -0.010203038468595218, 0.030103087878095906, 0.020355161401649398, -0.0072835624575833995, -0.005714100415869021, -0.005873831698138481, -0.021229615878729895, 0.012742610555094132, -0.019284516033939787, -0.04993060035674225, -0.025341797030112134, 0.0022016408382154796, -0.026529893853822106, -0.04065254420463678, -0.032969787360017704, -0.006514080061619, -0.011634760768703359, -0.15358055814549917, 0.046154575935692645, 0.008067854549139886, 0.0081607441663895, -0.0004237818178414129, -0.004991941756739889, -0.008004037375842434, 0.005184727474967544, -0.07633418005581598, -0.011100724095941357, -0.020383701465309323, -0.04393064089222335, 0.03316641584847228, -0.008589345652050719, -0.029561611441473595, -0.01764821371697749, 0.03438466577618298, -0.025220411623176005, 0.008546619393533081, -0.022974054097815135, -0.008994401728402875, 0.014874380452773324, 0.018284258037326646, -0.010591093762790455, -0.010658996895402567, -0.010851030713026705, -0.022404416513607254, -0.004977088795415524, 0.00688452929406876, -0.06565493889475285, -0.023745670684219365, 0.021304530447458572, 0.02503341855044907, -0.014358952567433598, -0.00968558023141048, -0.0010945685030886352, -0.20103806402221833, -0.019394921503698273, -0.03134216252760285, -0.02284794642039735, -0.004761080161353499, 0.04380836671342173, -0.013649213562084851, 0.05045422753983273, 0.008214028702037272, 0.005913019695101632, -0.1075469254533622, -0.001686964014424035, 0.0027799230198156015, 0.001667388062401836, -0.0032707909436596357, -0.03641870524138835, -0.04102974570204187, 0.04198467102903453, -0.01821876757023515, -0.008589057806210904, -0.02316192988590313, -0.0190917481002836, 0.011371414980969094, 0.029988167644460717, 0.014816669949667186, -0.005039551823149125, -0.034196414991925966, -0.0007938542956010025, -0.007186243249800171, -0.07604991503103772, -0.01604001307286114, -0.06522466957241194, -0.009758986972955333, -0.0054942901375971956, -0.020516992338603705, 0.008281476390843989, -0.040073637612640656, 0.009461175071852138, -0.0319716392843576, -0.019249869566779727, 0.007006224069063635, -0.0041558704688348805, -0.03896552857892238, 0.005118959920877149, -0.010464461402142291, -0.058859499484033004, -0.003242384713089184, -0.02785862054153853, -0.038286843574274955, -0.005507234807789991, 0.006394671923992422, -0.011291761620955389, 0.0011222833331454003, 0.016426891170686127, -0.01793710763349624, 0.008082771041933563, -0.0018114431477256265, 0.018235879962537182, -0.018332351951305066, -0.01862894224616357, -0.059125362744564855, -0.011015819406611487, 0.014436082767450977, 0.06135597482546517, 0.0024868862348131834, -0.044650075600113165, 0.019508304321945315, -0.021892434615390408, -0.09873002609529102, -0.024598271436382897, -0.002062624455158834, 0.0077637744236341115, -0.0217061221997592], [0.004049341251949769, 0.010799862206329728, 0.002682757353222658, -0.010715403708071565, 0.015891134831419806, -0.001999439424812384, 0.03797986681194316, 0.036233337976014995, 0.031530783788577044, 0.0073910598352759935, 0.011107631112773936, 0.014972702329606095, -0.014589168608136487, -0.017658023355743343, 0.005864977240533854, 0.028553497562819777, 0.0404905513904591, -0.00013230794336315446, 0.019687487592255953, -0.009125430517708272, -0.01513071861296124, 0.019415273503623875, 0.05279095059798537, 0.07486366680528335, -0.0168579557520732, 0.017149835883788316, 0.013994761348798932, 0.02020384617903755, 0.0009022572973266631, -0.01122056577913476, 0.06900543868238566, 0.051502035589536935, -0.0021757393641595535, 0.025587068312993212, 0.023722878445795806, 0.004480406163829782, 0.0011728717762980617, 0.003876007605806904, 0.01275571464819403, 0.012041778928100268, 0.014570244750318638, 0.04020992597104862, 0.0255742023124454, 0.025779290240554056, -0.005419333427242308, 0.005731760694614268, 0.00023526207875545436, 0.00021420282841766398, 0.025455276750621467, -0.005048620021039636, 0.0012184176776882884, -0.0026154900445846145, 0.010049032354201909, 0.028902448198038465, -0.004798540967872335, 0.03973846534422069, 0.014128803041306896, 0.029834469790523562, -0.0024701384540661, 0.032112287716345556, -0.0037396688580736822, 0.030934551829025228, 0.040179552057793555, -0.013838194875464706, 0.005270043785891526, 0.025231228940254584, 0.0017127606196887285, 0.051144840507397114, -0.012697124602578203, 0.011908989645009197, 0.04397205195154784, 0.002437956141294016, 0.028862501200192688, 0.006498812938533675, 0.015761027548786253, 0.028386432173536855, 0.010908061781838587, 0.021917581382217992, 0.013466114131012246, 0.004504872718494199, -0.0022018169689271214, -0.019357350650584238, 0.06220144735639857, 0.021355404303012027, -0.0007779100614538537, -0.0017334397277464174, 0.042770381060659016, 0.015837891158257247, 0.0009453122413178441, 0.008914752528851896, 0.009183954451759927, 0.015829972359688024, 0.007092592444887714, 0.006671464315631399, 0.003986428872734966, -0.0038913393708733877, 0.011831082892653586, 0.040739099457465004, 0.0029674379442858343, 0.01271651089605996, 0.019696291301587093, -0.0005426121599989754, 0.0234762715563827, 0.02909014621382123, 0.015358211665015439, -0.0029513710610687754, 0.018597139923948704, 0.03713204820786356, 0.045882323517587684, 0.005273335794021434, 0.022466343295340727, 0.019040157468739764, 0.026171061732104827, -0.001261152905072203, 0.022736966475148248, -0.024988531734057035, 0.03973911831420907, 0.017461435256848477, 0.005088373036216508, 0.0032531668102980874, 0.010213724399410087, -0.0028599477099397054, 0.0005532976728030067, 0.013377663890027262, 0.005965583372738018, 0.00971357852758257, 0.01014203106465841, 0.02271370175412059, 0.029112790083122154, 0.03280153549794339, -0.015309959756085397, 0.019850407735771524, 0.005188025366369045, 0.0074316063520935, 0.02031838109901148, -0.012834773240152992, 0.00939404608471688, 0.030941048516273138, 0.016037922912308874, 0.007129128259279251, 0.011734901399540225, -0.004728523007933661, 0.03498729435187825, 0.006502061230212132, -0.007983312676768942, -0.021038515631364524, 0.038831221438976674, -0.049438251452638776, 0.012140661877409776, 0.014012532638284477, 0.0026115261383821693, 0.045169767518505474, 0.009052567523468722, 0.009265167168063103, 0.03851992339266813, -0.00287028404414616, 0.014806542109084029, 0.0356767068194937, 0.02688773738825923, 0.008937829992805778, 0.031816158110313957, 0.031850797551767326, 0.014443892700590806, 0.028027967341208992, 0.017661429975648946, 0.007458478390075124, 0.0005020158909630676, 0.015369005429322062, 0.004808896199182869, 0.06254777849941554, 0.040028915619311406, 0.029741987337287574, -0.015451276292553443, -0.0006392912106058375, -0.010045118092869629, -0.002083822163486258, -0.0017362900575892638, 0.0011329319405656193, 0.022189066017925443, 0.0041310820057976465, 0.0019780060510201118, -0.010453968582735309, -0.004462312158713417, 0.010643784596556894, 0.032270407981657215, 0.012562054226900644, 0.022398279248557466, 0.0007962825346548825, -0.0008029036676083026, -0.00718148991840704, 0.018444577624318153, 0.022248801101900827, 0.0013835212994402894, 0.014088678644418404, 0.040028361957778764, -0.03249082384698362, 0.003106661310543199, 0.011631772232622324, 0.02224584860874555, 0.011719482464110633, 0.016154406642736645, 0.00866536952374948, 0.003000378714091714, 0.009482561694987197, 0.004022694227230481, 0.014387360841106533, 0.009019469916591588, 0.03407011104608269, 0.023683121218160835, 0.0021785595591491437, 0.01597327145369276, -0.018170327820877612, -0.022409406003608946, 0.006904006504277122, 0.032517209256163165, 0.007606090636210362, 0.014457327081926949, 0.025917579413408404, 0.014543016031346247, 0.002446286707970407, -0.011946061938887467, -0.002751805088023479, -0.020902331895018875, -0.003913048087608557, 0.005088473151408936, 0.015422883925126427, 0.02100621319301452, 0.0015341976058709148, -0.024352467218257894, 0.011008927582889464, 0.013585325434759463, 0.022449770099731627, -0.004115885635313688, -0.0013990199583497132, 0.047717807426246706, 0.011237146599077312, 0.004075065484817594, -0.010120822347978158, -0.0006889654413911122, -0.018900041184736788, 0.009865663884792217, -0.004191009568641954, -0.003516339130782271, -0.0011248162830277038, 0.015524357747669444, 0.01275686584492056, 0.0006614041925469664, 0.018547080024778916, 0.025653958355916502, 0.01920797798283161, 0.05202996489347791, 0.014170410622833023, 0.009390767900692197, 0.031731990482493685, 0.032041796831886196, 0.018315120784043418], [-0.0027451062643408606, 0.07868921411049877, -0.010877685628371334, -0.06735149715403693, 0.015303118092503879, 0.004198466319748147, 0.0645558889545235, 0.0749339414011362, 0.07003215236324495, 0.0588576533491421, 0.0211352431668208, 0.014720039133054507, 0.024874581664549138, 0.21519736941106293, -0.014567389112333313, 0.008895895481406619, 0.09796665461605482, -0.03228241071907657, 0.042681795332328125, 0.058204122894275734, -0.05501134418441665, 0.014090311719361223, -0.006896426771419607, 0.013776768806296387, -0.03809250085043714, -0.009068022063997552, -0.009027180081721167, -0.005309556072004883, 0.025367121598784646, 0.01946476352630223, 0.0571527501947454, 0.14252981885438828, 0.07208471836591378, 0.1806597087516363, -0.014697268933819483, 0.05394205117278823, 0.04561240615641252, -0.031190922286077158, -0.0004090009090356888, 0.05119460488054438, 0.02729109592563269, 0.12142693238509705, 0.06931641652888515, 0.062039547694273285, 0.04263510286020965, 0.035481755439554945, 0.030459104684121267, -0.007899932005496569, 0.050560698703379925, 0.05838901256152817, -0.016136114944504346, 0.013242959025953665, 0.05393679731207532, 0.04802309728606002, 0.06473614109655881, 0.20505899907609287, -0.019060286505381347, 0.12382715659895988, -0.025043542314244417, 0.027332059345033962, -0.007983841726111949, 0.033901586430637065, 0.019762961971352244, 0.029541507631023436, 0.01691852815027318, 0.11922652519403301, 0.043319471446086104, 0.024981238209060976, 0.022699156052150775, -0.005017308535157075, 0.1566373351040333, -0.026336141258879897, 0.008494293084106222, 0.04254446484700877, 0.07448895611640431, 0.0922116231318845, 0.013164436546377058, -0.068874050779589, 0.022203043805383633, 0.05966627564239543, 0.02597483878828464, 0.04069766445119531, 0.11082956915671172, 0.014559631351453921, 0.05017268692657602, 0.12699932396290844, 0.12237099271629683, -0.006245315520247049, 0.036084380587674776, 0.04697602790866813, 0.030431153527408168, 0.01049421183868894, 0.05276042077598759, 0.020021468798803278, 0.04875188247645365, -0.005934128285389825, 0.048432598152224046, 0.10254065737814191, -0.09938823717343129, 0.05202937452093522, 0.037290899692113, 0.0624475635486075, -0.03219073406267945, 0.10284455826894782, 0.06734281239854976, 0.02317137930863813, 0.038559377717592165, 0.054391454723871115, 0.10364264933247702, 0.03609154264328874, 0.05651412125833908, 0.04747268185852781, 0.17443074431714276, 0.019214492353622558, 0.1020559080801907, -0.08356433925914011, 0.006257993695806195, 0.06384444073654817, 0.08731036131776863, -0.027388612136422096, 0.024920759065694516, 0.1010925185259592, -0.06777797349964751, 0.03594075434415031, 0.012111783762802763, 0.06520082653270964, 0.01683717118085121, 0.03590447060947822, -0.01747805181382706, 0.12513632654230097, 0.032906317935505906, 0.021652619170016586, 0.05727956297223269, 0.06261909841648257, 0.010605656650698979, 0.022770851493893886, -0.03565931080529401, -0.019613070461043467, 0.06383116878004293, 0.056921934606120175, 0.08412361913037196, 0.036325946987688505, 0.06885771954697514, 0.06680764377375191, -0.11796540097750131, -0.022142759532492215, 0.05415336762132052, 0.04938795244088711, 0.07210187281564048, 0.06430719575844397, 0.04428303790246184, 0.05698483299807623, 0.049541264251375186, 0.06509183084050248, 0.05621700679428406, 0.06635184949504193, 0.08884940076966795, 0.08616437336614162, 0.040842798826186834, -0.17373413996367817, 0.14226833699653973, -0.16034402571711612, -0.007850383655132517, 0.022594090839192733, -0.02535322715924749, 0.02719664129862773, 0.0062680659842783305, 0.06318656316770513, 0.036827213787844024, -0.078882126430201, 0.02626265072828983, 0.11496275596136928, 0.15309996740557003, 0.0424006573080424, 0.0072121642446203015, 0.08472215015133419, 0.06283380012324241, -0.012457893900335271, 0.05901726310301753, 0.023481873748024046, -0.02595239592501477, -0.0761060860819694, 0.03122368897877053, -0.23304543505424669, 0.007209956931420565, 0.036342877253192504, 0.030459781357860535, -0.009179297028495997, 0.1189050911448329, 0.03349123049399426, 0.06873730793269664, 0.04569849019875963, 0.06946391779554703, -0.5763734818825934, 0.014218055089582671, -0.04125731918821759, 0.050104811911415865, 0.05091907791511056, 0.057870761422189484, -0.01589155657572729, -0.09700391959339998, -0.014332975494913622, 0.06748927602657549, -0.014285570439284705, 0.011731728474661465, 0.02484210376252732, 0.053954398796982876, 0.06713685528567725, 0.05747446575998763, -0.03247567567235826, 0.0663744898714307, 0.017730315455277694, 0.19288770375971684, 0.0407938062349849, 0.09079893498162991, 0.22325678740866886, 0.048220575816403946, -0.03274240285773311, 0.06314759939109525, 0.01684710436050502, 0.017226406659355997, 0.093633750117746, 0.05142592399504924, 0.03197267830973167, 0.13431558663526005, -0.04809679717643623, 0.049659572401466505, 0.030787727665678003, -0.20254342771797534, 0.1122307455703817, 0.04533413317717488, 0.07908813059285424, -0.004498022634053083, 0.004838287875955638, 0.10089238632992115, 0.08829994286398063, 0.030470457643687617, 0.14044823624596453, 0.016265991672411363, 0.04230748016594924, 0.0098369203177894, 0.002653983112925101, -0.036619436691827746, -0.01297888509440746, 0.053643038786873605, 0.0019410976212174307, -0.4272430537911987, -0.01498558673145965, 0.05932622843150582, -0.03332172084867886, 0.04764873213929334, -0.08346561490592622, -0.0010264822301884738, 0.03548782865645556, 0.049020964920120653, -0.019271138624237735], [0.021568306153323683, 0.004856648032261012, 0.013554097105096332, -0.0020058803956047406, 0.004110257346573253, 0.006438416400018875, 